{"learner":{"attributes":{"scikit_learn":"{\"n_estimators\": 100, \"objective\": \"binary:logistic\", \"max_depth\": 4, \"learning_rate\": 0.1, \"verbosity\": null, \"booster\": null, \"tree_method\": null, \"gamma\": 1, \"min_child_weight\": null, \"max_delta_step\": null, \"subsample\": null, \"colsample_bytree\": null, \"colsample_bylevel\": null, \"colsample_bynode\": null, \"reg_alpha\": null, \"reg_lambda\": null, \"scale_pos_weight\": null, \"base_score\": null, \"missing\": NaN, \"num_parallel_tree\": null, \"kwargs\": {}, \"random_state\": null, \"n_jobs\": null, \"monotone_constraints\": null, \"interaction_constraints\": null, \"importance_type\": \"gain\", \"gpu_id\": null, \"validate_parameters\": null, \"classes_\": [0, 1], \"n_classes_\": 2, \"_le\": {\"classes_\": [0, 1]}, \"_features_count\": 37, \"type\": \"XGBClassifier\"}"},"gradient_booster":{"model":{"gbtree_model_param":{"num_trees":"100","size_leaf_vector":"0"},"tree_info":[0,0,0,0,0,0,0,0,0,0,0,0,0,0,0,0,0,0,0,0,0,0,0,0,0,0,0,0,0,0,0,0,0,0,0,0,0,0,0,0,0,0,0,0,0,0,0,0,0,0,0,0,0,0,0,0,0,0,0,0,0,0,0,0,0,0,0,0,0,0,0,0,0,0,0,0,0,0,0,0,0,0,0,0,0,0,0,0,0,0,0,0,0,0,0,0,0,0,0,0],"trees":[{"base_weights":[-0E0,-1.8612086E0,1.8270187E0,-1.9342421E0,6.666667E-1,2.9834256E-1,1.9376026E0,-1.9797554E0,-1.023622E0,-1E0,1.5294118E0,-4.680851E-1,1.0769231E0,1.0967742E0,1.9792746E0,-1.2758621E0,1.2E0,-1.3333334E0,5E-1,-0E0,1.6595745E0,-9.0909094E-1,1.2380953E0,-8E-1,1.2470589E0,4.4067797E-1,1.5942029E0,5.4545456E-1,1.9826765E0],"default_left":[true,true,true,true,true,true,true,false,true,true,true,true,true,true,true,false,false,false,false,false,false,false,false,false,false,false,false,false,false],"id":0,"leaf_child_counts":[0,0,0,0,0,0,0,0,0,0,0,0,0,0,0,0,0,0,0,0,0,0,0,0,0,0,0,0,0],"left_children":[1,3,5,7,9,11,13,-1,15,17,19,21,23,25,27,-1,-1,-1,-1,-1,-1,-1,-1,-1,-1,-1,-1,-1,-1],"loss_changes":[4.4018994E3,1.1967676E2,1.0985181E2,2.3814697E1,2.84902E1,2.7505926E1,1.9167969E1,0E0,1.9339184E1,4.166667E0,2.5381718E0,1.8807774E1,8.262442E0,9.414665E0,1.7426758E0,0E0,0E0,0E0,0E0,0E0,0E0,0E0,0E0,0E0,0E0,0E0,0E0,0E0,0E0],"parents":[2147483647,0,0,1,1,2,2,3,3,4,4,5,5,6,6,8,8,9,9,10,10,11,11,12,12,13,13,14,14],"right_children":[2,4,6,8,10,12,14,-1,16,18,20,22,24,26,28,-1,-1,-1,-1,-1,-1,-1,-1,-1,-1,-1,-1,-1,-1],"split_conditions":[3.7045833E-2,2.470047E-2,1.5630428E-2,3.302203E-2,2.4453621E-2,4.169649E-2,4.474308E-2,-1.9797555E-1,2.0391706E-2,3.3442393E-2,7.1201692E-3,1.110613E-2,4.9499202E-1,2.2276217E-2,1.1489836E-2,-1.2758622E-1,1.20000005E-1,-1.3333334E-1,5E-2,-0E0,1.6595745E-1,-9.090909E-2,1.2380953E-1,-8.0000006E-2,1.2470589E-1,4.4067796E-2,1.594203E-1,5.454546E-2,1.9826765E-1],"split_indices":[7,2,10,7,7,33,7,0,18,2,13,20,35,10,2,0,0,0,0,0,0,0,0,0,0,0,0,0,0],"sum_hessian":[1.2925E3,6.4025E2,6.5225E2,6.225E2,1.775E1,4.425E1,6.08E2,5.9175E2,3.075E1,6E0,1.175E1,2.25E1,2.175E1,3E1,5.78E2,2.8E1,2.75E0,5E0,1E0,1E0,1.075E1,1.825E1,4.25E0,1.5E0,2.025E1,1.375E1,1.625E1,1.75E0,5.7625E2],"tree_param":{"num_deleted":"0","num_feature":"37","num_nodes":"29","size_leaf_vector":"0"}},{"base_weights":[3.1962982E-4,-1.6916531E0,1.6606447E0,-1.7583603E0,6.0769874E-1,-3.674978E-2,1.7450848E0,-1.8002527E0,-9.2523825E-1,-9.1502196E-1,1.3978853E0,-4.8139158E-1,1.2892082E0,8.5539824E-1,1.7993724E0,-1.8035747E0,-8.582678E-1,-1.4890758E0,2.657495E-3,2.1698447E-1,-1.3340585E0,-0E0,1.517605E0,-8.6535394E-1,9.216343E-1,1.6032039E0,-7.4631244E-2,3.3544716E-1,1.4644529E0,8.032187E-1,1.802682E0],"default_left":[true,true,true,true,true,true,true,true,true,true,true,true,true,true,true,true,true,false,false,false,false,false,false,false,false,false,false,false,false,true,true],"id":1,"leaf_child_counts":[0,0,0,0,0,0,0,0,0,0,0,0,0,0,0,0,0,0,0,0,0,0,0,0,0,0,0,0,0,0,0],"left_children":[1,3,5,7,9,11,13,-1,17,19,21,23,25,27,-1,-1,-1,-1,-1,-1,-1,-1,-1,-1,-1,-1,-1,-1,-1,-1,-1],"loss_changes":[3.6032449E3,9.850818E1,9.2851685E1,1.9890015E1,2.3723656E1,1.928559E1,2.8247803E1,2.8894043E-1,1.6550377E1,3.5991287E0,2.121437E0,1.3961554E1,3.640666E0,1.1344143E1,4.6533203E-1,0E0,0E0,0E0,0E0,0E0,0E0,0E0,0E0,0E0,0E0,0E0,0E0,0E0,0E0,0E0,0E0],"parents":[2147483647,0,0,1,1,2,2,3,3,4,4,5,5,6,6,7,7,8,8,9,9,10,10,11,11,12,12,13,13,14,14],"right_children":[2,4,6,8,10,12,14,-1,18,20,22,24,26,28,-1,-1,-1,-1,-1,-1,-1,-1,-1,-1,-1,-1,-1,-1,-1,-1,-1],"split_conditions":[3.7045833E-2,2.470047E-2,1.4202746E-2,3.302203E-2,2.4453621E-2,1.07066315E-2,4.474308E-2,-1.8002526E-1,1.2591977E-2,1.336328E-3,7.1201692E-3,4.990468E-2,5.0328714E-1,2.3586215E-2,1.7993724E-1,-1.8035747E-1,-8.582678E-2,-1.4890759E-1,2.657495E-4,2.1698447E-2,-1.3340585E-1,-0E0,1.517605E-1,-8.6535394E-2,9.2163436E-2,1.6032039E-1,-7.4631246E-3,3.3544715E-2,1.4644529E-1,8.032187E-2,1.8026821E-1],"split_indices":[7,2,10,7,7,18,7,17,2,20,13,7,29,2,13,2147483647,2147483647,0,0,0,0,0,0,0,0,0,0,0,0,2147483647,2147483647],"sum_hessian":[1.2806476E3,6.342694E2,6.463782E2,6.1661584E2,1.7653538E1,3.0658281E1,6.157199E2,5.859894E2,3.0626484E1,5.977219E0,1.1676319E1,2.3436216E1,7.222066E0,3.63735E1,5.793464E2,5.8301855E2,2.9707952E0,1.8674253E1,1.1952232E1,1.7451003E0,4.2321186E0,1E0,1.0676319E1,1.870146E1,4.7347555E0,5.727841E0,1.4942248E0,2.0458668E1,1.5914834E1,2.7254055E0,5.76621E2],"tree_param":{"num_deleted":"4","num_feature":"37","num_nodes":"31","size_leaf_vector":"0"}},{"base_weights":[4.73313E-4,-1.5627203E0,1.5329437E0,-1.6248925E0,5.56934E-1,-2.8045058E-2,1.6120818E0,-1.664805E0,-8.450102E-1,-8.462911E-1,1.2907717E0,-4.343811E-1,1.1930287E0,7.806197E-1,1.6637754E0,-1.6682148E0,-7.391683E-1,-1.0755836E0,1.1439651E0,2.0312558E-1,-1.239269E0,-0E0,1.4031768E0,-1.3569824E0,1.4040281E-1,1.4881936E0,-7.014041E-2,2.8628176E-1,1.3537459E0,6.851737E-1,1.6671805E0],"default_left":[true,true,true,true,true,true,true,true,true,true,true,true,true,true,true,true,true,false,false,false,false,false,false,false,false,false,false,false,false,true,true],"id":2,"leaf_child_counts":[0,0,0,0,0,0,0,0,0,0,0,0,0,0,0,0,0,0,0,0,0,0,0,0,0,0,0,0,0,0,0],"left_children":[1,3,5,7,9,11,13,-1,17,19,21,23,25,27,-1,-1,-1,-1,-1,-1,-1,-1,-1,-1,-1,-1,-1,-1,-1,-1,-1],"loss_changes":[2.999657E3,8.259436E1,7.815588E1,1.7346313E1,2.0048214E1,1.6143625E1,2.4567871E1,5.7263184E-1,1.5613434E1,3.1076546E0,1.811182E0,1.3109749E1,3.1355934E0,1.0126276E1,7.426758E-1,0E0,0E0,0E0,0E0,0E0,0E0,0E0,0E0,0E0,0E0,0E0,0E0,0E0,0E0,0E0,0E0],"parents":[2147483647,0,0,1,1,2,2,3,3,4,4,5,5,6,6,7,7,8,8,9,9,10,10,11,11,12,12,13,13,14,14],"right_children":[2,4,6,8,10,12,14,-1,18,20,22,24,26,28,-1,-1,-1,-1,-1,-1,-1,-1,-1,-1,-1,-1,-1,-1,-1,-1,-1],"split_conditions":[3.7045833E-2,2.470047E-2,1.4202746E-2,3.302203E-2,2.4453621E-2,1.07066315E-2,4.474308E-2,-1.6648051E-1,2.0391706E-2,1.336328E-3,7.1201692E-3,1.0905134E-2,5.0328714E-1,2.2276217E-2,1.6637754E-1,-1.6682148E-1,-7.391683E-2,-1.0755836E-1,1.1439651E-1,2.0312559E-2,-1.239269E-1,-0E0,1.4031768E-1,-1.3569824E-1,1.4040281E-2,1.4881937E-1,-7.014041E-3,2.8628176E-2,1.3537459E-1,6.851737E-2,1.6671805E-1],"split_indices":[7,2,10,7,7,18,7,17,18,20,13,10,29,10,13,2147483647,2147483647,0,0,0,0,0,0,0,0,0,0,0,0,2147483647,2147483647],"sum_hessian":[1.2501798E3,6.1887634E2,6.313034E2,6.0146796E2,1.740839E1,3.0492258E1,6.0081116E2,5.711054E2,3.0362528E1,5.925179E0,1.1483211E1,2.336227E1,7.1299872E0,3.610963E1,5.6470154E2,5.682101E2,2.895338E0,2.76199E1,2.7426288E0,1.7459278E0,4.179251E0,1E0,1.0483211E1,8.445428E0,1.4916842E1,5.6350913E0,1.4948962E0,2.0192514E1,1.5917117E1,2.6592844E0,5.6204224E2],"tree_param":{"num_deleted":"4","num_feature":"37","num_nodes":"31","size_leaf_vector":"0"}},{"base_weights":[6.2633224E-4,-1.4750159E0,1.4186348E0,-1.529639E0,4.518881E-1,5.2064353E-1,1.5603071E0,-1.5625921E0,-9.078936E-1,-7.8642595E-1,1.1647693E0,1.1605875E-1,1.3905616E0,2.5161383E-1,1.5677879E0,-1.5661849E0,-6.350644E-1,-1.2820196E0,-4.511068E-2,1.9018063E-1,-1.1582326E0,2.2646783E-2,1.2987242E0,6.608664E-1,-4.4177398E-1,3.7648574E-1,1.4841869E0,1.1056135E0,-6.1570346E-1,3.8654965E-1,1.5696564E0],"default_left":[true,true,true,true,true,true,true,true,true,true,true,true,true,true,true,true,true,false,false,false,false,false,false,false,false,false,false,false,false,true,true],"id":3,"leaf_child_counts":[0,0,0,0,0,0,0,0,0,0,0,0,0,0,0,0,0,0,0,0,0,0,0,0,0,0,0,0,0,0,0],"left_children":[1,3,5,7,9,11,13,-1,17,19,21,23,25,27,-1,-1,-1,-1,-1,-1,-1,-1,-1,-1,-1,-1,-1,-1,-1,-1,-1],"loss_changes":[2.5293396E3,6.3038452E1,7.7609985E1,1.0387817E1,1.601212E1,2.9930763E1,4.8131104E0,8.243408E-1,1.0074991E1,2.705697E0,1.6926727E0,1.8359306E1,2.0094795E0,3.8023643E0,5.6018066E-1,0E0,0E0,0E0,0E0,0E0,0E0,0E0,0E0,0E0,0E0,0E0,0E0,0E0,0E0,0E0,0E0],"parents":[2147483647,0,0,1,1,2,2,3,3,4,4,5,5,6,6,7,7,8,8,9,9,10,10,11,11,12,12,13,13,14,14],"right_children":[2,4,6,8,10,12,14,-1,18,20,22,24,26,28,-1,-1,-1,-1,-1,-1,-1,-1,-1,-1,-1,-1,-1,-1,-1,-1,-1],"split_conditions":[3.63949E-2,2.470047E-2,4.944057E-2,3.2206222E-2,2.4453621E-2,2.3586215E-2,1.2906716E-2,-1.5625922E-1,1.2675254E-2,1.336328E-3,2.4362594E-2,3.1215971E-2,1.8165547E-2,2.2867024E-2,1.567788E-1,-1.5661849E-1,-6.350645E-2,-1.2820196E-1,-4.511068E-3,1.9018063E-2,-1.1582326E-1,2.2646782E-3,1.2987243E-1,6.608664E-2,-4.4177398E-2,3.7648574E-2,1.484187E-1,1.1056135E-1,-6.1570346E-2,3.8654964E-2,1.5696564E-1],"split_indices":[7,2,7,7,7,2,10,17,2,20,33,0,30,30,12,2147483647,2147483647,0,0,0,0,0,0,0,0,0,0,0,0,2147483647,2147483647],"sum_hessian":[1.20678E3,5.913524E2,6.154277E2,5.752516E2,1.610083E1,8.449984E1,5.309278E2,5.448601E2,3.0391432E1,5.8448453E0,1.0255984E1,5.8449394E1,2.605045E1,3.2145023E0,5.277133E2,5.4207196E2,2.7881968E0,2.0860043E1,9.531389E0,1.7463329E0,4.0985126E0,1.1993318E0,9.056653E0,2.9476475E1,2.8972918E1,2.6262434E0,2.3424206E1,1.481248E0,1.7332544E0,1.1617174E0,5.265516E2],"tree_param":{"num_deleted":"4","num_feature":"37","num_nodes":"31","size_leaf_vector":"0"}},{"base_weights":[7.1849895E-4,-1.3924088E0,1.3354471E0,-1.428263E0,1.2162708E0,4.7777507E-1,1.4754685E0,-1.4712476E0,-6.6866964E-1,1.9158211E-1,1.3632215E0,-1.0721752E-1,1.0275618E0,2.3913367E-1,1.482838E0,-2.186378E-1,-1.4746182E0,-1.168939E0,3.599134E-1,-4.933651E-1,1.0124013E0,1.2676224E-2,1.2186091E0,1.0476389E0,-5.7577795E-1,3.1192353E-1,1.4847959E0],"default_left":[true,true,true,true,true,true,true,true,true,true,true,true,true,true,true,false,false,false,false,false,false,false,false,false,false,true,true],"id":4,"leaf_child_counts":[0,0,0,0,0,0,0,0,0,0,0,0,0,0,0,0,0,0,0,0,0,0,0,0,0,0,0],"left_children":[1,3,5,7,-1,11,13,15,17,-1,-1,19,21,23,-1,-1,-1,-1,-1,-1,-1,-1,-1,-1,-1,-1,-1],"loss_changes":[2.152111E3,5.4704956E1,7.028003E1,1.7270996E1,9.762821E-1,2.7266216E1,4.270752E0,1.908081E0,1.6772167E1,0E0,0E0,1.8576918E1,8.442413E0,3.3706286E0,6.932373E-1,0E0,0E0,0E0,0E0,0E0,0E0,0E0,0E0,0E0,0E0,0E0,0E0],"parents":[2147483647,0,0,1,1,2,2,3,3,4,4,5,5,6,6,7,7,8,8,11,11,12,12,13,13,14,14],"right_children":[2,4,6,8,-1,12,14,16,18,-1,-1,20,22,24,-1,-1,-1,-1,-1,-1,-1,-1,-1,-1,-1,-1,-1],"split_conditions":[3.63949E-2,2.9814165E-2,4.944057E-2,3.2519348E-2,1.21627085E-1,1.6482722E-2,1.2906716E-2,4.846455E-1,1.352193E-2,1.9158212E-2,1.3632216E-1,1.05747E-2,4.6772105E-1,2.2867024E-2,1.4828381E-1,-2.1863779E-2,-1.4746182E-1,-1.168939E-1,3.599134E-2,-4.933651E-2,1.01240136E-1,1.2676225E-3,1.21860914E-1,1.0476389E-1,-5.7577796E-2,3.1192353E-2,1.484796E-1],"split_indices":[7,10,7,7,18,2,10,29,2,2147483647,2147483647,18,8,30,12,0,0,0,0,0,0,0,0,0,0,2147483647,2147483647],"sum_hessian":[1.1553931E3,5.6530786E2,5.900852E2,5.580899E2,7.217971E0,8.343488E1,5.0665033E2,5.273129E2,3.0777006E1,1.19424E0,6.0237308E0,4.0813187E1,4.2621693E1,3.2003157E0,5.0345E2,1.5918651E0,5.25721E2,2.0614384E1,1.0162622E1,3.0762716E1,1.0050469E1,6.9211836E0,3.5700512E1,1.4631159E0,1.7371998E0,1.1080564E0,5.0234195E2],"tree_param":{"num_deleted":"4","num_feature":"37","num_nodes":"27","size_leaf_vector":"0"}},{"base_weights":[8.9544995E-4,-1.3104545E0,1.2788993E0,-1.3663309E0,4.72757E-1,1.5764786E-1,1.3708789E0,-1.4075253E0,-6.8764347E-1,-6.771814E-1,1.0837661E0,-4.4440824E-1,7.90013E-1,6.061523E-1,1.4018207E0,-1.4114733E0,-4.5401573E-1,-8.831867E-1,9.473487E-1,1.9984739E-1,-1.0292066E0,1.2034327E0,5.8816024E-3,5.5999213E-1,-8.9205205E-1,-7.3470235E-1,9.3726E-1,-2.9438442E-1,1.0140147E0,2.1685602E-1,1.4052597E0],"default_left":[true,true,true,true,true,true,true,true,true,true,true,true,true,true,true,false,false,false,false,false,false,false,false,false,false,false,false,false,false,false,false],"id":5,"leaf_child_counts":[0,0,0,0,0,0,0,0,0,0,0,0,0,0,0,0,0,0,0,0,0,0,0,0,0,0,0,0,0,0,0],"left_children":[1,3,5,7,9,11,13,15,17,19,21,23,25,27,29,-1,-1,-1,-1,-1,-1,-1,-1,-1,-1,-1,-1,-1,-1,-1,-1],"loss_changes":[1.8447826E3,5.477942E1,5.7276978E1,1.3767334E1,1.2853911E1,1.6871948E1,1.1337952E1,1.2260742E0,1.1104162E1,2.243556E0,1.4954844E0,1.0782034E1,5.520994E0,8.302569E0,1.7095337E0,0E0,0E0,0E0,0E0,0E0,0E0,0E0,0E0,0E0,0E0,0E0,0E0,0E0,0E0,0E0,0E0],"parents":[2147483647,0,0,1,1,2,2,3,3,4,4,5,5,6,6,7,7,8,8,9,9,10,10,11,11,12,12,13,13,14,14],"right_children":[2,4,6,8,10,12,14,16,18,20,22,24,26,28,30,-1,-1,-1,-1,-1,-1,-1,-1,-1,-1,-1,-1,-1,-1,-1,-1],"split_conditions":[3.7045833E-2,2.470047E-2,1.5630428E-2,3.271318E-2,2.4453621E-2,4.169649E-2,4.247813E-2,5.317718E-1,2.091968E-2,1.336328E-3,1.1341323E-1,1.8455274E-2,4.9499202E-1,4.731372E-1,1.1489836E-2,-1.4114733E-1,-4.5401573E-2,-8.831867E-2,9.473487E-2,1.9984739E-2,-1.0292067E-1,1.2034327E-1,5.8816024E-4,5.5999216E-2,-8.9205205E-2,-7.3470235E-2,9.3726E-2,-2.9438442E-2,1.0140147E-1,2.1685602E-2,1.4052598E-1],"split_indices":[7,2,10,7,7,33,7,17,18,20,4,4,35,8,2,0,0,0,0,0,0,0,0,0,0,0,0,0,0,0,0],"sum_hessian":[1.0987644E3,5.422947E2,5.564698E2,5.2604504E2,1.6249659E1,4.2393803E1,5.14076E2,4.949302E2,3.111481E1,5.6006875E0,1.0648972E1,2.1869617E1,2.0524185E1,2.0791904E1,4.9328406E2,4.9241113E2,2.5190883E0,2.8201736E1,2.9130735E0,1.727964E0,3.8727236E0,9.480024E0,1.168947E0,6.6647086E0,1.5204909E1,1.4561744E0,1.906801E1,6.568114E0,1.4223791E1,1.6128645E0,4.916712E2],"tree_param":{"num_deleted":"0","num_feature":"37","num_nodes":"31","size_leaf_vector":"0"}},{"base_weights":[9.100627E-4,-1.2663589E0,1.207264E0,-1.3172623E0,3.8907507E-1,3.975232E-1,1.3496956E0,-1.3519518E0,-7.2389275E-1,-6.347785E-1,9.869882E-1,6.2348843E-2,1.1817583E0,2.0515752E-1,1.3572484E0,-1.3559746E0,-4.2745495E-1,-8.8843536E-1,7.8286964E-1,1.8716794E-1,-9.7326535E-1,-2.2946237E-2,1.1157193E0,3.5986167E-1,-8.1696236E-1,2.4154785E-1,1.2840648E0,9.705744E-1,-5.520144E-1,2.414727E-1,1.3592734E0],"default_left":[true,true,true,true,true,true,true,true,true,true,true,true,true,true,true,false,false,false,false,false,false,false,false,false,false,false,false,false,false,true,true],"id":6,"leaf_child_counts":[0,0,0,0,0,0,0,0,0,0,0,0,0,0,0,0,0,0,0,0,0,0,0,0,0,0,0,0,0,0,0],"left_children":[1,3,5,7,9,11,13,15,17,19,21,23,25,27,-1,-1,-1,-1,-1,-1,-1,-1,-1,-1,-1,-1,-1,-1,-1,-1,-1],"loss_changes":[1.5917292E3,4.3300964E1,6.0983032E1,9.166016E0,1.037222E1,2.1272293E1,3.6392212E0,1.1477661E0,7.97816E0,1.9844315E0,1.383152E0,1.5453655E1,2.023365E0,2.9404213E0,6.887207E-1,0E0,0E0,0E0,0E0,0E0,0E0,0E0,0E0,0E0,0E0,0E0,0E0,0E0,0E0,0E0,0E0],"parents":[2147483647,0,0,1,1,2,2,3,3,4,4,5,5,6,6,7,7,8,8,9,9,10,10,11,11,12,12,13,13,14,14],"right_children":[2,4,6,8,10,12,14,16,18,20,22,24,26,28,-1,-1,-1,-1,-1,-1,-1,-1,-1,-1,-1,-1,-1,-1,-1,-1,-1],"split_conditions":[3.63949E-2,2.470047E-2,4.944057E-2,3.2206222E-2,2.4453621E-2,2.3586215E-2,1.2906716E-2,5.317718E-1,2.091968E-2,1.336328E-3,2.4362594E-2,5.055405E-1,3.81833E-2,2.2867024E-2,1.3572484E-1,-1.3559745E-1,-4.2745497E-2,-8.884354E-2,7.828697E-2,1.8716795E-2,-9.732654E-2,-2.2946238E-3,1.1157193E-1,3.5986166E-2,-8.1696235E-2,2.4154786E-2,1.2840648E-1,9.705744E-2,-5.520144E-2,2.414727E-2,1.3592735E-1],"split_indices":[7,2,7,7,7,2,10,17,18,20,33,32,7,30,18,0,0,0,0,0,0,0,0,0,0,0,0,0,0,2147483647,2147483647],"sum_hessian":[1.0391797E3,5.0677023E2,5.324094E2,4.9185043E2,1.4919784E1,8.020803E1,4.522014E2,4.6347632E2,2.8374136E1,5.4778957E0,9.441888E0,5.6948364E1,2.3259666E1,3.1491525E0,4.4905222E2,4.6100366E2,2.4726462E0,2.5950624E1,2.4235115E0,1.7282465E0,3.7496493E0,1.16035E0,8.281538E0,4.2992653E1,1.3955714E1,2.6123981E0,2.0647268E1,1.4258922E0,1.7232603E0,1.0313652E0,4.4802087E2],"tree_param":{"num_deleted":"2","num_feature":"37","num_nodes":"31","size_leaf_vector":"0"}},{"base_weights":[9.974424E-4,-1.229928E0,1.1431979E0,-1.2787318E0,2.0148467E-1,3.412981E-1,1.3011844E0,-1.2991742E0,-5.439131E-1,-7.6676166E-1,7.781165E-1,2.5447035E-2,1.135448E0,1.9667809E-1,1.3088808E0,7.694511E-2,-1.3029666E0,-9.5912784E-1,8.289672E-1,-1.03638E0,2.4433525E-1,1.0215034E0,-2.9078206E-1,5.076224E-1,-4.5614356E-1,2.2969198E-1,1.2332131E0,7.932105E-1,-6.6042244E-1,2.2256121E-1,1.3112181E0],"default_left":[true,true,true,true,true,true,true,true,true,true,true,true,true,true,true,false,false,false,false,false,false,false,false,false,false,false,false,false,false,true,true],"id":7,"leaf_child_counts":[0,0,0,0,0,0,0,0,0,0,0,0,0,0,0,0,0,0,0,0,0,0,0,0,0,0,0,0,0,0,0],"left_children":[1,3,5,7,9,11,13,15,17,19,21,23,25,27,-1,-1,-1,-1,-1,-1,-1,-1,-1,-1,-1,-1,-1,-1,-1,-1,-1],"loss_changes":[1.3791414E3,3.3239502E1,6.40152E1,6.1535645E0,9.769947E0,2.1316494E1,3.3527832E0,2.4154053E0,8.822012E0,2.0623474E0,3.1051226E0,1.4606872E1,1.8589516E0,2.6281722E0,7.786255E-1,0E0,0E0,0E0,0E0,0E0,0E0,0E0,0E0,0E0,0E0,0E0,0E0,0E0,0E0,0E0,0E0],"parents":[2147483647,0,0,1,1,2,2,3,3,4,4,5,5,6,6,7,7,8,8,9,9,10,10,11,11,12,12,13,13,14,14],"right_children":[2,4,6,8,10,12,14,16,18,20,22,24,26,28,-1,-1,-1,-1,-1,-1,-1,-1,-1,-1,-1,-1,-1,-1,-1,-1,-1],"split_conditions":[3.5704542E-2,2.2746671E-2,4.944057E-2,3.2804504E-2,2.4473432E-2,2.3586215E-2,1.2906716E-2,4.8624492E-1,5.060008E-1,3.3025935E-2,9.638041E-2,3.1215971E-2,1.8165547E-2,2.853684E-2,1.3088809E-1,7.694511E-3,-1.3029666E-1,-9.5912784E-2,8.2896724E-2,-1.0363801E-1,2.4433525E-2,1.0215034E-1,-2.9078206E-2,5.0762244E-2,-4.5614358E-2,2.29692E-2,1.2332131E-1,7.932105E-2,-6.6042244E-2,2.2256121E-2,1.3112181E-1],"split_indices":[7,2,7,33,36,2,10,6,6,2,0,0,30,30,12,0,0,0,0,0,0,0,0,0,0,0,0,0,0,2147483647,2147483647],"sum_hessian":[9.789224E2,4.7112457E2,5.0779785E2,4.556944E2,1.5430165E1,8.409799E1,4.2369986E2,4.4261307E2,1.3081336E1,5.6362987E0,9.793866E0,6.0906258E1,2.319173E1,3.1157174E0,4.2058414E2,1.1634399E0,4.4144962E2,1.0275104E1,2.8062325E0,4.429994E0,1.2063046E0,8.013535E0,1.7803319E0,3.040764E1,3.049862E1,2.5856948E0,2.0606035E1,1.8810616E0,1.2346559E0,1.109603E0,4.1947455E2],"tree_param":{"num_deleted":"2","num_feature":"37","num_nodes":"31","size_leaf_vector":"0"}},{"base_weights":[1.1226984E-3,-1.1742798E0,1.1096643E0,-1.2083057E0,1.0317338E0,3.3908594E-1,1.2597513E0,-1.2557336E0,-4.8457682E-1,1.1978071E0,1.21110015E-1,-9.928108E-1,5.2642936E-1,1.8183973E-1,1.2677447E0,-7.8370553E-1,-1.270867E0,-9.437717E-1,3.904425E-1,-1.1919302E0,3.2263854E-1,6.1637826E-2,8.8320464E-1,8.9213246E-1,-5.016286E-1,1.6177556E-1,1.2702495E0],"default_left":[true,true,true,true,true,true,true,true,true,true,true,true,true,true,true,false,false,false,false,false,false,false,false,false,false,true,true],"id":8,"leaf_child_counts":[0,0,0,0,0,0,0,0,0,0,0,0,0,0,0,0,0,0,0,0,0,0,0,0,0,0,0],"left_children":[1,3,5,7,-1,11,13,15,17,-1,-1,19,21,23,-1,-1,-1,-1,-1,-1,-1,-1,-1,-1,-1,-1,-1],"loss_changes":[1.2001619E3,3.4803833E1,5.439569E1,1.4519592E1,9.634838E-1,2.0146069E1,3.1846924E0,1.9542847E0,1.1914099E1,0E0,0E0,3.0155096E0,1.1486996E1,2.4307323E0,8.8409424E-1,0E0,0E0,0E0,0E0,0E0,0E0,0E0,0E0,0E0,0E0,0E0,0E0],"parents":[2147483647,0,0,1,1,2,2,3,3,4,4,5,5,6,6,7,7,8,8,11,11,12,12,13,13,14,14],"right_children":[2,4,6,8,-1,12,14,16,18,-1,-1,20,22,24,-1,-1,-1,-1,-1,-1,-1,-1,-1,-1,-1,-1,-1],"split_conditions":[3.63949E-2,2.9814165E-2,4.944057E-2,3.2519348E-2,1.03173375E-1,1.0561284E-2,1.2906716E-2,4.9323264E-1,1.352193E-2,1.1978071E-1,1.2111002E-2,1.2933428E-2,5.571007E-3,2.2867024E-2,1.2677447E-1,-7.8370556E-2,-1.270867E-1,-9.4377175E-2,3.904425E-2,-1.1919302E-1,3.2263856E-2,6.163783E-3,8.8320464E-2,8.9213245E-2,-5.016286E-2,1.6177556E-2,1.2702495E-1],"split_indices":[7,10,7,7,32,10,10,31,2,2147483647,2147483647,18,18,30,12,0,0,0,0,0,0,0,0,0,0,2147483647,2147483647],"sum_hessian":[9.1908813E2,4.4606244E2,4.7302567E2,4.397322E2,6.330219E0,7.764403E1,3.9538165E2,4.119978E2,2.7734406E1,5.0870986E0,1.2431202E0,9.044412E0,6.859962E1,3.0852027E0,3.9229645E2,1.4438297E1,3.975595E2,1.8137558E1,9.596848E0,7.9369025E0,1.1075089E0,3.0299494E1,3.830012E1,1.3631994E0,1.7220033E0,1.0347201E0,3.9126172E2],"tree_param":{"num_deleted":"4","num_feature":"37","num_nodes":"27","size_leaf_vector":"0"}},{"base_weights":[1.062208E-3,-1.1362395E0,1.0681385E0,-1.1906625E0,2.5956154E-1,3.187205E-1,1.2259055E0,-1.2349015E0,-7.023345E-1,-6.8884677E-1,7.663392E-1,-2.3587033E-1,7.0667E-1,2.9215756E-1,1.2322842E0,-1.2399458E0,-2.0629202E-1,3.6873084E-1,-9.1416943E-1,-1.2886628E-3,-1.0520775E0,9.744038E-1,-1.606937E-1,-5.930858E-1,9.644799E-1,-1.2979831E-1,9.645861E-1,9.495672E-1,-5.977138E-1,1.5796824E-1,1.2348574E0],"default_left":[true,true,true,true,true,true,true,true,true,true,true,true,true,true,true,false,false,false,false,false,false,false,false,false,false,false,false,false,false,true,true],"id":9,"leaf_child_counts":[0,0,0,0,0,0,0,0,0,0,0,0,0,0,0,0,0,0,0,0,0,0,0,0,0,0,0,0,0,0,0],"left_children":[1,3,5,7,9,11,13,15,17,19,21,23,25,27,-1,-1,-1,-1,-1,-1,-1,-1,-1,-1,-1,-1,-1,-1,-1,-1,-1],"loss_changes":[1.0468594E3,3.2029053E1,5.222882E1,7.8187866E0,8.454098E0,1.7109745E1,1.8275757E0,1.6502686E0,8.441166E0,1.5644772E0,2.3209987E0,1.4791669E1,1.0175617E1,2.7922547E0,8.1256104E-1,0E0,0E0,0E0,0E0,0E0,0E0,0E0,0E0,0E0,0E0,0E0,0E0,0E0,0E0,0E0,0E0],"parents":[2147483647,0,0,1,1,2,2,3,3,4,4,5,5,6,6,7,7,8,8,9,9,10,10,11,11,12,12,13,13,14,14],"right_children":[2,4,6,8,10,12,14,16,18,20,22,24,26,28,-1,-1,-1,-1,-1,-1,-1,-1,-1,-1,-1,-1,-1,-1,-1,-1,-1],"split_conditions":[3.63949E-2,2.2877272E-2,4.9761757E-2,3.0598603E-2,2.4473432E-2,1.4684653E-2,1.2906716E-2,5.317718E-1,1.0894658E-2,1.3290192E-3,9.638041E-2,1.0635883E-2,4.7222462E-1,2.853684E-2,1.2322842E-1,-1.2399458E-1,-2.0629203E-2,3.6873084E-2,-9.141695E-2,-1.2886628E-4,-1.05207756E-1,9.7440384E-2,-1.6069371E-2,-5.9308585E-2,9.6448E-2,-1.2979831E-2,9.645861E-2,9.495672E-2,-5.9771385E-2,1.5796823E-2,1.23485744E-1],"split_indices":[7,2,7,7,36,2,10,17,0,20,0,18,8,30,18,0,0,0,0,0,0,0,0,0,0,0,0,0,0,2147483647,2147483647],"sum_hessian":[8.606153E2,4.1656784E2,4.4404745E2,4.0107663E2,1.5491215E1,7.774882E1,3.662986E2,3.6635837E2,3.4718266E1,5.269795E0,1.0221419E1,3.2162754E1,4.5586063E1,2.802816E0,3.6349582E2,3.643661E2,1.9922807E0,5.610448E0,2.9107817E1,2.1685338E0,3.1012614E0,8.306089E0,1.9153305E0,2.517636E1,6.986396E0,1.0860442E1,3.4725624E1,1.5733728E0,1.2294432E0,1.0176538E0,3.6247815E2],"tree_param":{"num_deleted":"2","num_feature":"37","num_nodes":"31","size_leaf_vector":"0"}},{"base_weights":[1.0857817E-3,-1.115833E0,1.0191256E0,-1.1759194E0,2.494444E-2,1.419385E-1,1.1680477E0,-1.1974214E0,-4.3620092E-1,-5.9474546E-1,7.830559E-1,-6.142983E-2,1.1863673E0,-8.8697404E-1,1.1799259E0,-4.3862358E-1,-1.2040545E0,-8.786253E-1,1.0032353E0,-9.494086E-1,7.9677135E-1,-4.0041584E-1,1.0958874E0,8.898407E-1,-3.3161923E-1,1.2589834E0,3.0729142E-1,4.6261796E-1,1.1940842E0],"default_left":[true,true,true,true,true,true,true,true,true,true,true,true,true,false,true,false,false,false,false,false,false,false,false,false,false,true,true,false,false],"id":10,"leaf_child_counts":[0,0,0,0,0,0,0,0,0,0,0,0,0,0,0,0,0,0,0,0,0,0,0,0,0,0,0,0,0],"left_children":[1,3,5,7,9,11,13,15,17,19,21,23,-1,-1,27,-1,-1,-1,-1,-1,-1,-1,-1,-1,-1,-1,-1,-1,-1],"loss_changes":[9.164446E2,2.6372803E1,5.4915314E1,5.284973E0,9.959865E0,1.33127365E1,9.841919E0,1.2547607E0,8.451161E0,6.5247607E0,3.9637747E0,1.3949448E1,2.647829E-1,0E0,3.09021E0,0E0,0E0,0E0,0E0,0E0,0E0,0E0,0E0,0E0,0E0,0E0,0E0,0E0,0E0],"parents":[2147483647,0,0,1,1,2,2,3,3,4,4,5,5,6,6,7,7,8,8,9,9,10,10,11,11,12,12,14,14],"right_children":[2,4,6,8,10,12,14,16,18,20,22,24,-1,-1,28,-1,-1,-1,-1,-1,-1,-1,-1,-1,-1,-1,-1,-1,-1],"split_conditions":[3.5704542E-2,2.0402689E-2,4.5100965E-2,3.2804504E-2,2.5445089E-2,1.579332E-2,1.0746118E-2,4.782359E-1,5.060008E-1,5.1157546E-1,4.9003863E-1,4.921757E-1,1.1863673E-1,-8.86974E-2,1.1964653E-2,-4.3862358E-2,-1.2040545E-1,-8.786253E-2,1.00323536E-1,-9.494086E-2,7.9677135E-2,-4.0041585E-2,1.0958874E-1,8.898407E-2,-3.3161923E-2,1.2589835E-1,3.0729143E-2,4.62618E-2,1.1940842E-1],"split_indices":[7,2,7,33,33,20,10,17,6,6,35,6,35,0,2,0,0,0,0,0,0,0,0,0,0,2147483647,2147483647,0,0],"sum_hessian":[8.039717E2,3.8332236E2,4.206493E2,3.641132E2,1.9209167E1,6.1333458E1,3.5931586E2,3.532269E2,1.0886304E1,1.0688084E1,8.521084E0,5.2125004E1,9.208454E0,1.641562E0,3.576743E2,3.642669E0,3.4958423E2,8.6249485E0,2.261355E0,8.770434E0,1.917649E0,1.7229656E0,6.7981186E0,1.1022852E1,4.110215E1,8.106638E0,1.1018164E0,7.574932E0,3.5009937E2],"tree_param":{"num_deleted":"2","num_feature":"37","num_nodes":"29","size_leaf_vector":"0"}},{"base_weights":[1.228582E-3,-1.0573375E0,1.0104873E0,-1.1281983E0,1.0592885E-1,2.9210708E-1,1.1678921E0,-1.17885E0,-4.8934743E-1,-7.099574E-1,6.141484E-1,-8.264815E-1,4.570592E-1,3.7374872E-1,1.1774637E0,-1.1842339E0,-6.541068E-1,-6.652382E-1,9.811377E-1,-1.0409757E0,-8.648431E-2,-7.395734E-1,7.76938E-1,-1.0480546E0,3.5176444E-1,1.4627606E-2,8.070649E-1,9.205737E-1,-6.98411E-1,1.2509242E-1,1.180519E0],"default_left":[true,true,true,true,true,true,true,true,true,true,true,true,true,true,true,true,true,false,false,false,false,false,false,false,false,false,false,false,false,true,true],"id":11,"leaf_child_counts":[0,0,0,0,0,0,0,0,0,0,0,0,0,0,0,0,0,0,0,0,0,0,0,0,0,0,0,0,0,0,0],"left_children":[1,3,5,7,9,11,13,-1,17,19,21,23,25,27,-1,-1,-1,-1,-1,-1,-1,-1,-1,-1,-1,-1,-1,-1,-1,-1,-1],"loss_changes":[8.034694E2,3.0376343E1,4.3192474E1,1.0621582E1,9.5541525E0,1.3391169E1,1.9578247E0,1.2924194E-1,7.6703734E0,1.7475958E0,3.678749E0,2.8279028E0,9.605893E0,3.7044685E0,8.5305786E-1,0E0,0E0,0E0,0E0,0E0,0E0,0E0,0E0,0E0,0E0,0E0,0E0,0E0,0E0,0E0,0E0],"parents":[2147483647,0,0,1,1,2,2,3,3,4,4,5,5,6,6,7,7,8,8,9,9,10,10,11,11,12,12,13,13,14,14],"right_children":[2,4,6,8,10,12,14,-1,18,20,22,24,26,28,-1,-1,-1,-1,-1,-1,-1,-1,-1,-1,-1,-1,-1,-1,-1,-1,-1],"split_conditions":[3.7045833E-2,2.0402689E-2,4.9761757E-2,3.2206222E-2,2.4632934E-2,1.0746118E-2,1.3436847E-2,-1.1788501E-1,2.091968E-2,2.6574686E-2,4.679517E-1,1.2495168E-2,5.571007E-3,5.028527E-1,1.1774637E-1,-1.18423395E-1,-6.541068E-2,-6.652382E-2,9.811377E-2,-1.0409757E-1,-8.648432E-3,-7.395735E-2,7.7693805E-2,-1.0480546E-1,3.5176445E-2,1.4627606E-3,8.070649E-2,9.205737E-2,-6.98411E-2,1.2509242E-2,1.180519E-1],"split_indices":[7,2,7,7,7,10,10,33,18,2,8,18,18,32,18,2147483647,2147483647,0,0,0,0,0,0,0,0,0,0,0,0,2147483647,2147483647],"sum_hessian":[7.5005365E2,3.6606107E2,3.839926E2,3.4507108E2,2.0989985E1,6.952825E1,3.1446436E2,3.1893857E2,2.6132511E1,7.904038E0,1.3085947E1,8.419915E0,6.1108334E1,4.2219257E0,3.1024243E2,3.1445544E2,4.483114E0,2.3829744E1,2.302768E0,4.725504E0,3.1785338E0,1.0243726E0,1.2061574E1,7.180158E0,1.2397567E0,2.7450624E1,3.365771E1,2.8895667E0,1.3323587E0,1.0195278E0,3.092229E2],"tree_param":{"num_deleted":"4","num_feature":"37","num_nodes":"31","size_leaf_vector":"0"}},{"base_weights":[1.0814082E-3,-1.058372E0,9.520155E-1,-1.1210938E0,1.7063145E-2,2.3233989E-1,1.1436442E0,-1.1552722E0,-5.293649E-1,-5.364404E-1,6.769566E-1,-1.9720152E-2,9.663929E-1,3.4642258E-1,1.1539532E0,-1.1612304E0,-5.957999E-1,-7.7751887E-1,8.0563194E-1,-8.55931E-1,9.1070503E-1,-3.88872E-1,9.728868E-1,2.5673681E-1,-8.4326786E-1,4.419108E-2,1.0818427E0,8.7329143E-1,-6.539778E-1,9.4620846E-2,1.1573739E0],"default_left":[true,true,true,true,true,true,true,true,true,true,true,true,true,true,true,true,true,false,false,false,false,false,false,false,false,false,false,false,false,true,true],"id":12,"leaf_child_counts":[0,0,0,0,0,0,0,0,0,0,0,0,0,0,0,0,0,0,0,0,0,0,0,0,0,0,0,0,0,0,0],"left_children":[1,3,5,7,9,11,13,-1,17,19,21,23,25,27,-1,-1,-1,-1,-1,-1,-1,-1,-1,-1,-1,-1,-1,-1,-1,-1,-1],"loss_changes":[7.0582074E2,2.2372131E1,5.0651E1,5.721466E0,7.393198E0,1.4615801E1,1.9944153E0,2.921753E-1,6.9026093E0,5.8770013E0,3.2869973E0,1.3809934E1,2.101265E0,3.2844741E0,9.311218E-1,0E0,0E0,0E0,0E0,0E0,0E0,0E0,0E0,0E0,0E0,0E0,0E0,0E0,0E0,0E0,0E0],"parents":[2147483647,0,0,1,1,2,2,3,3,4,4,5,5,6,6,7,7,8,8,9,9,10,10,11,11,12,12,13,13,14,14],"right_children":[2,4,6,8,10,12,14,-1,18,20,22,24,26,28,-1,-1,-1,-1,-1,-1,-1,-1,-1,-1,-1,-1,-1,-1,-1,-1,-1],"split_conditions":[3.5704542E-2,2.0402689E-2,4.9761757E-2,3.2206222E-2,2.5445089E-2,2.3586215E-2,1.3436847E-2,-1.1552723E-1,5.066776E-1,3.4998156E-2,4.9003863E-1,5.055405E-1,1.78875E-2,5.028527E-1,1.1539532E-1,-1.1612304E-1,-5.9579995E-2,-7.775189E-2,8.0563195E-2,-8.55931E-2,9.10705E-2,-3.88872E-2,9.728868E-2,2.5673682E-2,-8.432679E-2,4.4191084E-3,1.0818427E-1,8.732914E-2,-6.5397784E-2,9.462085E-3,1.1573739E-1],"split_indices":[7,2,7,7,33,2,10,33,6,2,35,32,30,32,12,2147483647,2147483647,0,0,0,0,0,0,0,0,0,0,0,0,2147483647,2147483647],"sum_hessian":[6.98587E2,3.3038544E2,3.6820154E2,3.1213837E2,1.8247055E1,7.789047E1,2.9031107E2,2.941933E2,1.7945076E1,1.0025214E1,8.221841E0,5.8705307E1,1.9185167E1,4.147913E0,2.8616315E2,2.90029E2,4.1643114E0,1.5484373E1,2.4607034E0,8.546842E0,1.478373E0,1.7184758E0,6.503365E0,4.4466564E1,1.423874E1,2.2884018E0,1.6896765E1,2.8002152E0,1.3476976E0,1.0133415E0,2.851498E2],"tree_param":{"num_deleted":"4","num_feature":"37","num_nodes":"31","size_leaf_vector":"0"}},{"base_weights":[1.2556138E-3,-9.148426E-1,1.0450125E0,-1.0569397E0,1.0623063E-1,-4.532103E-2,1.1095515E0,-1.1405485E0,-5.5026853E-1,-7.140054E-1,4.7166634E-1,3.6775658E-1,-7.8672683E-1,7.86372E-1,1.1496783E0,-1.1441613E0,-1.2733363E-1,-7.386423E-1,5.3635305E-1,-9.125179E-1,8.1470823E-1,6.1152667E-1,-6.994987E-1,-1.0139583E0,7.714374E-1,3.7544653E-1,-1.0678297E0,1.1579254E0,9.4989456E-2],"default_left":[true,true,true,true,true,true,true,true,true,true,true,true,true,true,false,true,true,false,false,false,false,false,false,false,false,false,false,false,false],"id":13,"leaf_child_counts":[0,0,0,0,0,0,0,0,0,0,0,0,0,0,0,0,0,0,0,0,0,0,0,0,0,0,0,0,0],"left_children":[1,3,5,7,9,11,13,-1,17,19,21,23,25,27,-1,-1,-1,-1,-1,-1,-1,-1,-1,-1,-1,-1,-1,-1,-1],"loss_changes":[6.236326E2,5.05094E1,2.1503204E1,1.2293091E1,1.3328213E1,5.801284E0,2.8289795E0,8.0926514E-1,9.63468E0,4.91801E0,5.4376783E0,7.609087E0,2.6087503E0,8.870434E0,0E0,0E0,0E0,0E0,0E0,0E0,0E0,0E0,0E0,0E0,0E0,0E0,0E0,0E0,0E0],"parents":[2147483647,0,0,1,1,2,2,3,3,4,4,5,5,6,6,7,7,8,8,9,9,10,10,11,11,12,12,13,13],"right_children":[2,4,6,8,10,12,14,-1,18,20,22,24,26,28,-1,-1,-1,-1,-1,-1,-1,-1,-1,-1,-1,-1,-1,-1,-1],"split_conditions":[3.8280394E-2,1.7295234E-2,1.408783E-2,3.0795958E-2,2.7301941E-2,5.0291264E-1,4.9054097E-2,-1.1405485E-1,1.15026655E-2,3.4998156E-2,1.3632023E-1,3.0573262E-3,4.9809358E-1,5.053781E-1,1.1496784E-1,-1.1441614E-1,-1.2733363E-2,-7.386423E-2,5.3635307E-2,-9.125179E-2,8.1470825E-2,6.1152667E-2,-6.994987E-2,-1.0139584E-1,7.714374E-2,3.7544653E-2,-1.0678297E-1,1.15792535E-1,9.498945E-3],"split_indices":[33,2,10,7,7,32,33,33,20,2,0,13,17,32,0,2147483647,2147483647,0,0,0,0,0,0,0,0,0,0,0,0],"sum_hessian":[6.5021014E2,3.4634714E2,3.0386298E2,3.0400528E2,4.2341858E1,1.6997757E1,2.8686523E2,2.5987137E2,4.4133934E1,1.2756191E1,2.9585665E1,1.123956E1,5.7581973E0,3.3958855E1,2.5290637E2,2.588192E2,1.0521361E0,3.7886307E1,6.2476263E0,1.1646859E1,1.1093322E0,2.6856335E1,2.7293308E0,2.1994662E0,9.040093E0,1.0561402E0,4.7020574E0,2.1649488E1,1.2309369E1],"tree_param":{"num_deleted":"2","num_feature":"37","num_nodes":"29","size_leaf_vector":"0"}},{"base_weights":[1.2138238E-3,-8.8698494E-1,1.0190017E0,-1.0862645E0,-1.6451551E-1,-4.663209E-2,1.0861698E0,-1.1208997E0,1.6405995E-1,-5.640727E-1,4.5651E-1,3.3500808E-1,-7.2602797E-1,7.382671E-1,1.1318822E0,-1.1283239E0,1.9950217E-2,9.922896E-1,-4.1415885E-1,2.1407779E-1,-8.53571E-1,-5.8571E-1,6.603648E-1,-9.558053E-1,7.1464235E-1,5.247188E-2,-1.1632379E0,1.10564E0,8.6546965E-2],"default_left":[true,true,true,true,true,true,true,true,true,true,true,true,true,true,false,false,false,false,false,false,false,false,false,false,false,false,false,false,false],"id":14,"leaf_child_counts":[0,0,0,0,0,0,0,0,0,0,0,0,0,0,0,0,0,0,0,0,0,0,0,0,0,0,0,0,0],"left_children":[1,3,5,7,9,11,13,15,17,19,21,23,25,27,-1,-1,-1,-1,-1,-1,-1,-1,-1,-1,-1,-1,-1,-1,-1],"loss_changes":[5.485324E2,4.647168E1,2.0289948E1,1.1174347E1,1.7932405E1,4.839048E0,3.3953247E0,2.115265E0,4.104734E0,1.0047755E1,6.429091E0,6.580077E0,2.3384998E0,7.9901505E0,0E0,0E0,0E0,0E0,0E0,0E0,0E0,0E0,0E0,0E0,0E0,0E0,0E0,0E0,0E0],"parents":[2147483647,0,0,1,1,2,2,3,3,4,4,5,5,6,6,7,7,8,8,9,9,10,10,11,11,12,12,13,13],"right_children":[2,4,6,8,10,12,14,16,18,20,22,24,26,28,-1,-1,-1,-1,-1,-1,-1,-1,-1,-1,-1,-1,-1,-1,-1],"split_conditions":[3.8280394E-2,3.0489571E-2,1.408783E-2,2.393578E-2,1.6378775E-2,5.0291264E-1,4.9054097E-2,5.317718E-1,5.128227E-1,1.8649094E-2,4.677125E-1,3.0573262E-3,5.001414E-1,5.053781E-1,1.1318822E-1,-1.1283239E-1,1.9950217E-3,9.922896E-2,-4.1415885E-2,2.140778E-2,-8.53571E-2,-5.8571E-2,6.6036485E-2,-9.558053E-2,7.146423E-2,5.2471883E-3,-1.1632379E-1,1.1056401E-1,8.654697E-3],"split_indices":[33,7,10,10,2,32,33,17,35,0,8,13,17,32,0,0,0,0,0,0,0,0,0,0,0,0,0,0,0],"sum_hessian":[6.047852E2,3.2302106E2,2.8176413E2,2.5279015E2,7.023091E1,1.6725002E1,2.6503912E2,2.4607709E2,6.7130594E0,4.2791378E1,2.7439535E1,1.1033824E1,5.691178E0,3.2772003E1,2.3226712E2,2.4449695E2,1.5801344E0,2.465463E0,4.2475963E0,1.1673737E1,3.1117641E1,4.1825953E0,2.325694E1,2.1626816E0,8.871142E0,2.3632104E0,3.3279674E0,2.0512608E1,1.2259397E1],"tree_param":{"num_deleted":"0","num_feature":"37","num_nodes":"29","size_leaf_vector":"0"}},{"base_weights":[1.1300151E-3,-8.4588194E-1,1.0149021E0,-1.0675793E0,-1.4331043E-1,7.831696E-2,1.0779651E0,-1.0886971E0,9.2437595E-1,-4.1621467E-1,6.183057E-1,3.8303772E-1,-7.0481515E-1,7.7162176E-1,1.1162204E0,-1.1042727E0,-2.7579296E-1,6.0718715E-1,-7.9662836E-1,-4.3722284E-1,1.0311688E0,-7.966393E-1,6.84195E-1,-1.1615914E0,1.8535154E-1,8.93921E-1,-3.4009483E-1],"default_left":[true,true,true,true,true,true,true,true,false,true,true,true,true,true,false,false,false,false,false,false,false,false,false,false,false,false,false],"id":15,"leaf_child_counts":[0,0,0,0,0,0,0,0,0,0,0,0,0,0,0,0,0,0,0,0,0,0,0,0,0,0,0],"left_children":[1,3,5,7,9,11,13,15,-1,17,19,21,23,25,-1,-1,-1,-1,-1,-1,-1,-1,-1,-1,-1,-1,-1],"loss_changes":[4.8454773E2,4.7732407E1,1.5086853E1,1.0830261E1,1.5824548E1,4.3942146E0,1.9580994E0,2.6271667E0,0E0,2.2182995E1,9.236344E0,5.1952977E0,2.326874E0,4.3756466E0,0E0,0E0,0E0,0E0,0E0,0E0,0E0,0E0,0E0,0E0,0E0,0E0,0E0],"parents":[2147483647,0,0,1,1,2,2,3,3,4,4,5,5,6,6,7,7,9,9,10,10,11,11,12,12,13,13],"right_children":[2,4,6,8,10,12,14,16,-1,18,20,22,24,26,-1,-1,-1,-1,-1,-1,-1,-1,-1,-1,-1,-1,-1],"split_conditions":[4.2676322E-2,3.0489571E-2,1.3481344E-2,3.390702E-2,5.0551665E-1,5.042454E-1,4.9096826E-2,2.393578E-2,9.2437595E-2,4.9218315E-1,5.0168765E-1,4.9408227E-1,4.91305E-2,4.8039682E-2,1.11622036E-1,-1.10427275E-1,-2.7579296E-2,6.0718715E-2,-7.966284E-2,-4.3722283E-2,1.03116885E-1,-7.966393E-2,6.84195E-2,-1.1615914E-1,1.8535154E-2,8.93921E-2,-3.4009483E-2],"split_indices":[7,7,2,2,6,35,33,10,0,6,17,35,33,33,0,0,0,0,0,0,0,0,0,0,0,0,0],"sum_hessian":[5.622959E2,3.0643414E2,2.5586174E2,2.325372E2,7.389694E1,1.6282528E1,2.3957922E2,2.3054651E2,1.9906958E0,5.473696E1,1.9159977E1,1.2089377E1,4.1931496E0,2.894679E1,2.1063243E2,2.2586049E2,4.6860166E0,1.4671383E1,4.006558E1,5.3705626E0,1.3789415E1,2.1240199E0,9.965358E0,2.569654E0,1.6234956E0,2.6254461E1,2.6923282E0],"tree_param":{"num_deleted":"0","num_feature":"37","num_nodes":"27","size_leaf_vector":"0"}},{"base_weights":[1.2082588E-3,-8.384816E-1,9.7369397E-1,-1.050539E0,-1.5483317E-1,-4.8507046E-2,1.0468031E0,-1.0890988E0,1.5169467E-1,-8.927955E-1,1.00527175E-1,6.1354905E-1,-3.8351214E-1,6.601228E-1,1.1026644E0,-1.0979162E0,8.773382E-2,9.2834103E-1,-3.9555544E-1,-1.002709E0,2.1743247E-1,6.3121355E-1,-2.8725985E-1,-3.9027938E-1,9.643226E-1,-9.0959626E-1,1.763347E-1,-8.627895E-1,8.529042E-1],"default_left":[true,true,true,true,true,true,true,true,true,true,true,true,true,true,false,false,false,false,false,false,false,false,false,false,false,false,false,false,false],"id":16,"leaf_child_counts":[0,0,0,0,0,0,0,0,0,0,0,0,0,0,0,0,0,0,0,0,0,0,0,0,0,0,0,0,0],"left_children":[1,3,5,7,9,11,13,15,17,19,21,23,25,27,-1,-1,-1,-1,-1,-1,-1,-1,-1,-1,-1,-1,-1,-1,-1],"loss_changes":[4.2824283E2,4.063716E1,1.8210693E1,1.0115021E1,1.2866669E1,4.0446553E0,4.1716003E0,2.2555084E0,3.575153E0,2.357357E0,1.0732344E1,2.5437808E0,3.7005725E0,9.873327E0,0E0,0E0,0E0,0E0,0E0,0E0,0E0,0E0,0E0,0E0,0E0,0E0,0E0,0E0,0E0],"parents":[2147483647,0,0,1,1,2,2,3,3,4,4,5,5,6,6,7,7,8,8,9,9,10,10,11,11,12,12,13,13],"right_children":[2,4,6,8,10,12,14,16,18,20,22,24,26,28,-1,-1,-1,-1,-1,-1,-1,-1,-1,-1,-1,-1,-1,-1,-1],"split_conditions":[3.8280394E-2,3.0489571E-2,1.408783E-2,2.393578E-2,1.0618815E-2,5.002332E-1,2.1524478E-2,5.317718E-1,5.128227E-1,1.0512106E-2,3.2446433E-2,3.99724E-2,6.295887E-2,4.903282E-1,1.1026644E-1,-1.0979163E-1,8.773382E-3,9.283411E-2,-3.9555546E-2,-1.00270905E-1,2.1743247E-2,6.3121356E-2,-2.8725985E-2,-3.902794E-2,9.643226E-2,-9.095963E-2,1.763347E-2,-8.627895E-2,8.5290425E-2],"split_indices":[33,7,10,10,10,17,10,17,35,2,0,33,9,3,0,0,0,0,0,0,0,0,0,0,0,0,0,0,0],"sum_hessian":[5.224307E2,2.8043112E2,2.419996E2,2.1362976E2,6.680137E1,1.6175322E1,2.2582428E2,2.07082E2,6.547749E0,1.653137E1,5.027E1,5.1554217E0,1.1019899E1,3.012325E1,1.9570103E2,2.0560855E2,1.4734503E0,2.4187431E0,4.129006E0,1.5130302E1,1.4010681E0,2.0959375E1,2.9310625E1,1.30583E0,3.849592E0,5.3591866E0,5.660713E0,2.9942372E0,2.7129011E1],"tree_param":{"num_deleted":"0","num_feature":"37","num_nodes":"29","size_leaf_vector":"0"}},{"base_weights":[1.1214423E-3,-7.9493785E-1,9.7205186E-1,-1.0343825E0,-1.2822461E-1,3.8313303E-2,1.0433496E0,-1.0575619E0,8.8698107E-1,-3.7451103E-1,5.5331224E-1,-1.0578816E0,2.3615868E-1,7.051963E-1,1.0897512E0,-1.0763844E0,-1.9175273E-1,5.376781E-1,-7.262558E-1,-2.1982607E-1,1.1198063E0,5.583645E-1,-6.837466E-1,8.333287E-1,-3.718047E-1],"default_left":[true,true,true,true,true,true,true,true,false,true,true,false,true,true,false,false,false,false,false,false,false,false,false,false,false],"id":17,"leaf_child_counts":[0,0,0,0,0,0,0,0,0,0,0,0,0,0,0,0,0,0,0,0,0,0,0,0,0],"left_children":[1,3,5,7,9,11,13,15,-1,17,19,-1,21,23,-1,-1,-1,-1,-1,-1,-1,-1,-1,-1,-1],"loss_changes":[3.7721207E2,4.2677994E1,1.4597427E1,9.71904E0,1.2293117E1,3.8577278E0,2.4360962E0,2.9758759E0,0E0,1.7551983E1,8.793938E0,0E0,4.8010173E0,4.1016445E0,0E0,0E0,0E0,0E0,0E0,0E0,0E0,0E0,0E0,0E0,0E0],"parents":[2147483647,0,0,1,1,2,2,3,3,4,4,5,5,6,6,7,7,9,9,10,10,12,12,13,13],"right_children":[2,4,6,8,10,12,14,16,-1,18,20,-1,22,24,-1,-1,-1,-1,-1,-1,-1,-1,-1,-1,-1],"split_conditions":[4.2676322E-2,3.0489571E-2,1.3481344E-2,3.390702E-2,5.0551665E-1,4.9447042E-1,4.9096826E-2,1.8270858E-2,8.869811E-2,4.9218315E-1,4.9251825E-1,-1.05788164E-1,2.5870972E-6,4.8039682E-2,1.0897513E-1,-1.0763844E-1,-1.9175274E-2,5.376781E-2,-7.262558E-2,-2.1982608E-2,1.1198063E-1,5.583645E-2,-6.8374656E-2,8.3332874E-2,-3.7180472E-2],"split_indices":[7,7,2,2,6,3,33,20,0,6,35,0,27,33,0,0,0,0,0,0,0,0,0,0,0],"sum_hessian":[4.860365E2,2.6716827E2,2.1886821E2,1.9616556E2,7.100273E1,1.563569E1,2.0323251E2,1.9427142E2,1.8941257E0,5.248629E1,1.8516438E1,1.7259222E0,1.3909767E1,2.6477123E1,1.767554E2,1.8989984E2,4.3715825E0,1.4459493E1,3.80268E1,8.088875E0,1.0427563E1,1.0592618E1,3.3171487E0,2.3864212E1,2.61291E0],"tree_param":{"num_deleted":"0","num_feature":"37","num_nodes":"25","size_leaf_vector":"0"}},{"base_weights":[1.2644975E-3,-7.90405E-1,9.313718E-1,-1.0185118E0,-1.4453165E-1,3.465753E-1,1.0734845E0,-1.0629559E0,1.91196E-1,-3.591587E-1,6.3521755E-1,5.911292E-1,-4.0127364E-1,6.4917827E-1,1.083482E0,-1.073294E0,1.0339259E-1,-6.439657E-1,6.6250944E-1,-6.9207704E-1,1.2513538E-1,9.364888E-1,-2.3487304E-1,9.809265E-2,8.7767226E-1,-1.0752763E0,4.552786E-1,-3.4780285E-1,9.081845E-1],"default_left":[true,true,true,true,true,true,true,true,true,true,true,true,true,true,false,false,false,false,false,false,false,false,false,false,false,false,false,false,false],"id":18,"leaf_child_counts":[0,0,0,0,0,0,0,0,0,0,0,0,0,0,0,0,0,0,0,0,0,0,0,0,0,0,0,0,0],"left_children":[1,3,5,7,9,11,13,15,17,19,21,23,25,27,-1,-1,-1,-1,-1,-1,-1,-1,-1,-1,-1,-1,-1,-1,-1],"loss_changes":[3.3433826E2,3.5989822E1,1.6978485E1,9.939911E0,1.1136959E1,7.9720573E0,7.080078E-3,2.2191162E0,3.286408E0,8.430777E0,4.002662E0,4.4735813E0,6.850233E0,1.9556127E0,0E0,0E0,0E0,0E0,0E0,0E0,0E0,0E0,0E0,0E0,0E0,0E0,0E0,0E0,0E0],"parents":[2147483647,0,0,1,1,2,2,3,3,4,4,5,5,6,6,7,7,8,8,9,9,10,10,11,11,12,12,13,13],"right_children":[2,4,6,8,10,12,14,16,18,20,22,24,26,28,-1,-1,-1,-1,-1,-1,-1,-1,-1,-1,-1,-1,-1,-1,-1],"split_conditions":[3.8280394E-2,3.0489571E-2,2.0881426E-2,2.393578E-2,1.15026655E-2,5.056018E-1,5.4425216E-1,5.317718E-1,3.0446663E-3,1.5489284E-2,3.497125E-2,1.372589E-2,3.1020083E-2,4.564057E-2,1.08348206E-1,-1.07329406E-1,1.0339259E-2,-6.4396575E-2,6.625094E-2,-6.9207706E-2,1.2513538E-2,9.364888E-2,-2.3487305E-2,9.809266E-3,8.776723E-2,-1.0752763E-1,4.552786E-2,-3.4780286E-2,9.081846E-2],"split_indices":[33,7,10,10,20,32,14,17,18,2,4,10,30,16,0,0,0,0,0,0,0,0,0,0,0,0,0,0,0],"sum_hessian":[4.5205594E2,2.4428267E2,2.0777327E2,1.8009909E2,6.418358E1,4.1292522E1,1.6648074E2,1.7383383E2,6.265263E0,5.075311E1,1.343047E1,3.127489E1,1.00176325E1,5.350073E0,1.6113066E2,1.7238562E2,1.4482011E0,2.1280546E0,4.1372085E0,2.9822903E1,2.0930206E1,9.919503E0,3.5109665E0,1.198882E1,1.9286072E1,5.463314E0,4.554319E0,1.032579E0,4.3174944E0],"tree_param":{"num_deleted":"0","num_feature":"37","num_nodes":"29","size_leaf_vector":"0"}},{"base_weights":[1.5002426E-3,-9.094537E-1,7.670241E-1,-9.9181026E-1,6.6762805E-2,1.5349801E-1,1.0490031E0,-9.257542E-2,-1.0327291E0,-2.4502711E-1,7.997609E-1,-4.7586802E-1,3.3362517E-1,1.7601566E-1,1.0572248E0,-8.2637125E-1,1.4503937E0,-1.0654322E0,-4.2413387E-1,5.333804E-1,-7.1300423E-1,9.4635195E-1,1.239701E-1,5.7701133E-2,-1.0214819E0,5.576148E-1,-2.8736934E-1,5.041415E-2,1.0634431E0],"default_left":[true,true,true,true,true,true,true,true,true,true,true,true,true,true,true,false,false,false,false,false,false,true,true,false,false,false,false,true,true],"id":19,"leaf_child_counts":[0,0,0,0,0,0,0,0,0,0,0,0,0,0,0,0,0,0,0,0,0,0,0,0,0,0,0,0,0],"left_children":[1,3,5,7,9,11,-1,15,17,19,-1,23,25,-1,-1,-1,-1,-1,-1,-1,-1,-1,-1,-1,-1,-1,-1,-1,-1],"loss_changes":[2.9464322E2,1.5577515E1,3.9557022E1,6.453476E0,3.840502E0,8.48694E0,9.416046E-1,1.1213104E1,2.9343872E0,4.734677E0,3.7735915E-1,4.9378576E0,8.186634E0,0E0,9.196472E-1,0E0,0E0,0E0,0E0,0E0,0E0,0E0,0E0,0E0,0E0,0E0,0E0,0E0,0E0],"parents":[2147483647,0,0,1,1,2,2,3,3,4,4,5,5,6,6,7,7,8,8,9,9,10,10,11,11,12,12,14,14],"right_children":[2,4,6,8,10,12,-1,16,18,20,-1,24,26,-1,-1,-1,-1,-1,-1,-1,-1,-1,-1,-1,-1,-1,-1,-1,-1],"split_conditions":[3.5704542E-2,2.0402689E-2,5.223401E-2,4.9323264E-1,2.986801E-2,4.6973807E-1,1.04900315E-1,4.986645E-1,3.308519E-2,3.7227646E-2,7.997609E-2,3.307936E-2,5.030422E-1,1.7601566E-2,1.0572248E-1,-8.2637124E-2,1.4503936E-1,-1.0654322E-1,-4.2413387E-2,5.333804E-2,-7.1300425E-2,9.4635196E-2,1.239701E-2,5.7701133E-3,-1.0214819E-1,5.5761483E-2,-2.8736934E-2,5.041415E-3,1.06344305E-1],"split_indices":[7,2,7,31,10,8,2,29,7,0,32,4,8,2147483647,2147483647,0,0,0,0,0,0,2147483647,2147483647,0,0,0,0,2147483647,2147483647],"sum_hessian":[4.2051385E2,1.9193182E2,2.2858202E2,1.7698488E2,1.4946953E1,7.246281E1,1.561192E2,7.8450146E0,1.6913986E2,1.0953474E1,3.993478E0,1.5758971E1,5.670384E1,1.6656412E0,1.5445357E2,5.631329E0,2.2136853E0,1.5980222E2,9.3376465E0,4.060201E0,6.8932734E0,2.9526365E0,1.0408416E0,8.419541E0,7.3394303E0,4.1747707E1,1.4956129E1,1.0040056E0,1.5344955E2],"tree_param":{"num_deleted":"6","num_feature":"37","num_nodes":"29","size_leaf_vector":"0"}},{"base_weights":[1.3517336E-3,-7.460353E-1,8.8841933E-1,-1.032269E0,-2.1077257E-1,3.064384E-1,1.0580543E0,-1.0666223E0,2.5615266E-1,-4.2927206E-1,7.0405155E-1,6.2155193E-1,-2.4545994E-1,-3.1880453E-1,8.8531935E-1,9.400363E-1,-5.3722525E-1,9.3989336E-1,-4.1468135E-1,-6.848079E-1,7.876081E-1,-5.8309174E-1,4.284614E-1],"default_left":[true,true,true,true,true,true,false,false,true,true,true,true,true,false,false,false,false,false,false,false,false,false,false],"id":20,"leaf_child_counts":[0,0,0,0,0,0,0,0,0,0,0,0,0,0,0,0,0,0,0,0,0,0,0],"left_children":[1,3,5,7,9,11,-1,-1,13,15,17,19,21,-1,-1,-1,-1,-1,-1,-1,-1,-1,-1],"loss_changes":[2.6120056E2,3.254254E1,1.7461304E1,6.428467E0,1.5445669E1,7.468504E0,0E0,0E0,1.880415E0,9.636606E0,4.3434134E0,6.4096975E0,3.891824E0,0E0,0E0,0E0,0E0,0E0,0E0,0E0,0E0,0E0,0E0],"parents":[2147483647,0,0,1,1,2,2,3,3,4,4,5,5,8,8,9,9,10,10,11,11,12,12],"right_children":[2,4,6,8,10,12,-1,-1,14,16,18,20,22,-1,-1,-1,-1,-1,-1,-1,-1,-1,-1],"split_conditions":[3.8280394E-2,2.6699323E-2,2.1524478E-2,2.6574686E-2,1.1738906E-2,5.038268E-1,1.05805434E-1,-1.0666223E-1,4.8497304E-1,4.8668784E-1,3.91614E-2,3.0037612E-3,5.0796986E-1,-3.1880453E-2,8.853193E-2,9.400363E-2,-5.3722527E-2,9.3989335E-2,-4.1468136E-2,-6.848079E-2,7.876081E-2,-5.8309175E-2,4.284614E-2],"split_indices":[33,7,10,2,20,32,0,0,3,6,4,13,29,0,0,0,0,0,0,0,0,0,0],"sum_hessian":[3.9197815E2,2.128246E2,1.7915355E2,1.380652E2,7.475941E1,4.1067226E1,1.3808633E2,1.3464723E2,3.4179623E0,6.077457E1,1.3984831E1,2.6061094E1,1.500613E1,2.0436687E0,1.3742938E0,3.8779373E0,5.6896633E1,1.1681992E1,2.3028398E0,2.5868049E0,2.3474289E1,1.0087241E1,4.9188886E0],"tree_param":{"num_deleted":"0","num_feature":"37","num_nodes":"23","size_leaf_vector":"0"}},{"base_weights":[1.8037178E-3,-7.023219E-1,8.9504427E-1,-1.0217427E0,-1.81867E-1,1.6474058E-1,1.0141389E0,-1.0584142E0,2.450313E-1,-4.1149122E-1,5.1831514E-1,4.6655065E-1,-5.056454E-1,4.8083013E-1,1.0479667E0,-2.9926923E-1,8.382551E-1,2.1351376E-1,-8.2688224E-1,-1.814957E-1,1.2725149E0,-8.8566256E-1,7.167584E-1,2.3886307E-1,-9.783378E-1,8.106372E-1,-1.1558956E0,4.5942437E-2,1.0554187E0],"default_left":[true,true,true,true,true,true,true,false,true,true,true,true,true,true,true,false,false,false,false,false,false,false,false,false,false,false,false,true,true],"id":21,"leaf_child_counts":[0,0,0,0,0,0,0,0,0,0,0,0,0,0,0,0,0,0,0,0,0,0,0,0,0,0,0,0,0],"left_children":[1,3,5,7,9,11,13,-1,15,17,19,21,23,25,-1,-1,-1,-1,-1,-1,-1,-1,-1,-1,-1,-1,-1,-1,-1],"loss_changes":[2.3113129E2,3.397699E1,1.392189E1,6.1649475E0,1.2974501E1,5.072874E0,2.0052338E0,0E0,1.6679184E0,1.5838803E1,1.0810136E1,6.3881683E0,3.0143893E0,6.4125547E0,9.2178345E-1,0E0,0E0,0E0,0E0,0E0,0E0,0E0,0E0,0E0,0E0,0E0,0E0,0E0,0E0],"parents":[2147483647,0,0,1,1,2,2,3,3,4,4,5,5,6,6,8,8,9,9,10,10,11,11,12,12,13,13,14,14],"right_children":[2,4,6,8,10,12,14,-1,16,18,20,22,24,26,-1,-1,-1,-1,-1,-1,-1,-1,-1,-1,-1,-1,-1,-1,-1],"split_conditions":[4.2676322E-2,2.6699323E-2,1.6447041E-2,2.6574686E-2,5.0551665E-1,4.3825373E-2,4.705661E-3,-1.0584142E-1,4.8497304E-1,4.9462193E-1,4.9494234E-1,1.0956405E-2,6.3768653E-3,1.4732268E-2,1.0479667E-1,-2.9926924E-2,8.382551E-2,2.1351377E-2,-8.268823E-2,-1.814957E-2,1.2725149E-1,-8.856626E-2,7.167584E-2,2.3886306E-2,-9.783378E-2,8.106372E-2,-1.1558956E-1,4.5942436E-3,1.0554188E-1],"split_indices":[7,7,2,2,6,4,18,0,3,6,35,10,13,21,12,0,0,0,0,0,0,0,0,0,0,0,0,2147483647,2147483647],"sum_hessian":[3.6548602E2,2.0449779E2,1.6098822E2,1.261265E2,7.8371284E1,2.2906404E1,1.3808182E2,1.2273787E2,3.3886328E0,5.9327263E1,1.9044024E1,1.6004969E1,6.901436E0,9.143582E0,1.2893823E2,2.0256026E0,1.3630303E0,2.3881186E1,3.5446075E1,1.0272073E1,8.771951E0,2.1025138E0,1.3902455E1,2.8722339E0,4.029202E0,8.030187E0,1.1133957E0,1.0047363E0,1.27933495E2],"tree_param":{"num_deleted":"2","num_feature":"37","num_nodes":"29","size_leaf_vector":"0"}},{"base_weights":[1.6770207E-3,-6.490226E-1,9.1941625E-1,-1.0117536E0,-1.4822103E-1,4.1367188E-1,1.0370971E0,-1.0509361E0,2.3445685E-1,-3.4310782E-1,6.028357E-1,-7.0437616E-1,5.4688364E-1,5.610577E-1,1.0520613E0,-2.8090534E-1,7.9436594E-1,-5.3960586E-1,4.7137365E-1,-2.6588464E-1,7.526386E-1,2.501515E-1,-1.4401472E0,-5.534598E-1,6.7757607E-1,-6.27235E-2,8.281652E-1],"default_left":[true,true,true,true,true,true,true,false,true,true,true,true,true,true,true,false,false,false,false,false,false,false,false,false,false,true,true],"id":22,"leaf_child_counts":[0,0,0,0,0,0,0,0,0,0,0,0,0,0,0,0,0,0,0,0,0,0,0,0,0,0,0],"left_children":[1,3,5,7,9,11,-1,-1,15,17,19,21,23,-1,-1,-1,-1,-1,-1,-1,-1,-1,-1,-1,-1,-1,-1],"loss_changes":[2.0474165E2,3.6292824E1,8.036507E0,5.919121E0,1.2712856E1,4.631885E0,2.2698212E-1,0E0,1.4809312E0,1.1213374E1,2.538087E0,2.799138E0,4.1198125E0,9.9151826E-1,0E0,0E0,0E0,0E0,0E0,0E0,0E0,0E0,0E0,0E0,0E0,0E0,0E0],"parents":[2147483647,0,0,1,1,2,2,3,3,4,4,5,5,6,6,8,8,9,9,10,10,11,11,12,12,13,13],"right_children":[2,4,6,8,10,12,-1,-1,16,18,20,22,24,-1,-1,-1,-1,-1,-1,-1,-1,-1,-1,-1,-1,-1,-1],"split_conditions":[4.1137494E-2,2.6699323E-2,2.0881426E-2,2.6574686E-2,2.2326484E-2,4.9184823E-1,1.0370971E-1,-1.0509361E-1,4.8497304E-1,5.05554E-1,4.677125E-1,9.128615E-2,4.9492478E-1,5.610577E-2,1.0520613E-1,-2.8090535E-2,7.943659E-2,-5.3960588E-2,4.7137365E-2,-2.6588464E-2,7.526386E-2,2.501515E-2,-1.4401472E-1,-5.5345982E-2,6.775761E-2,-6.2723504E-3,8.281652E-2],"split_indices":[33,7,10,2,10,3,9,0,3,6,8,0,35,2147483647,2147483647,0,0,0,0,0,0,0,0,0,0,2147483647,2147483647],"sum_hessian":[3.408525E2,1.9961404E2,1.4123845E2,1.15173515E2,8.444054E1,2.7513186E1,1.1372526E2,1.11814606E2,3.3589098E0,6.7475044E1,1.696549E1,2.4726408E0,2.5040545E1,4.6391306E0,1.0908613E2,2.008505E0,1.3504046E0,5.4632214E1,1.2842829E1,2.3812885E0,1.4584203E1,1.3636152E0,1.1090256E0,2.314995E0,2.272555E1,1.6203264E0,3.0188043E0],"tree_param":{"num_deleted":"4","num_feature":"37","num_nodes":"27","size_leaf_vector":"0"}},{"base_weights":[1.6228673E-3,-8.36687E-1,6.710296E-1,-9.3386096E-1,8.167376E-2,1.07741185E-1,1.0085295E0,-2.7848324E-2,-9.851441E-1,-1.5545626E-1,8.867563E-1,-4.2915687E-1,2.9387236E-1,9.2716336E-2,1.0202667E0,-7.776433E-1,1.2568825E0,-1.0312517E0,-3.206074E-1,5.317821E-1,-5.474012E-1,2.7547006E-2,-9.2526984E-1,5.307895E-1,-2.803481E-1,2.837738E-1,1.0368992E0],"default_left":[true,true,true,true,true,true,true,true,true,true,false,true,true,false,true,false,false,false,false,false,false,false,false,false,false,false,false],"id":23,"leaf_child_counts":[0,0,0,0,0,0,0,0,0,0,0,0,0,0,0,0,0,0,0,0,0,0,0,0,0,0,0],"left_children":[1,3,5,7,9,11,13,15,17,19,-1,21,23,-1,25,-1,-1,-1,-1,-1,-1,-1,-1,-1,-1,-1,-1],"loss_changes":[1.797965E2,1.2770973E1,3.375801E1,5.953354E0,2.912019E0,6.9080667E0,1.1015396E0,8.611231E0,3.4012299E0,3.5438654E0,0E0,4.076002E0,7.085301E0,0E0,1.0503998E0,0E0,0E0,0E0,0E0,0E0,0E0,0E0,0E0,0E0,0E0,0E0,0E0],"parents":[2147483647,0,0,1,1,2,2,3,3,4,4,5,5,6,6,7,7,8,8,9,9,11,11,12,12,14,14],"right_children":[2,4,6,8,10,12,14,16,18,20,-1,22,24,-1,26,-1,-1,-1,-1,-1,-1,-1,-1,-1,-1,-1,-1],"split_conditions":[3.5704542E-2,2.0402689E-2,5.223401E-2,4.9323264E-1,3.390702E-2,4.7133213E-1,1.1058541E-2,4.986645E-1,3.308519E-2,3.7227646E-2,8.867563E-2,3.307936E-2,5.0253725E-1,9.271634E-3,1.6583342E-3,-7.776433E-2,1.2568825E-1,-1.0312517E-1,-3.206074E-2,5.317821E-2,-5.474012E-2,2.7547006E-3,-9.252699E-2,5.307895E-2,-2.803481E-2,2.8377382E-2,1.03689924E-1],"split_indices":[7,2,7,31,2,8,2,29,7,0,0,4,8,0,11,0,0,0,0,0,0,0,0,0,0,0,0],"sum_hessian":[3.1839508E2,1.4125237E2,1.7714272E2,1.2772102E2,1.3531342E1,6.686465E1,1.10278076E2,6.924783E0,1.2079624E2,1.107593E1,2.455412E0,1.6877008E1,4.998764E1,1.5080584E0,1.0877001E2,4.621996E0,2.3027873E0,1.1244278E2,8.353463E0,3.8930526E0,7.182877E0,9.279295E0,7.597713E0,3.544079E1,1.4546851E1,2.8010242E0,1.05968994E2],"tree_param":{"num_deleted":"0","num_feature":"37","num_nodes":"27","size_leaf_vector":"0"}},{"base_weights":[1.7415603E-3,-6.0291535E-1,8.824578E-1,-9.9369204E-1,-1.2956755E-1,3.5529736E-1,1.021637E0,-1.038228E0,2.2850925E-1,-2.8465703E-1,7.310915E-1,-7.022468E-1,4.8735914E-1,4.981949E-1,1.0396779E0,-2.67145E-1,7.6226324E-1,-6.740357E-1,2.6699483E-2,9.3095607E-1,-2.2858475E-1,3.0859414E-1,-1.3705027E0,3.9815232E-2,8.355128E-1,-1.3252807E-1,7.9230607E-1],"default_left":[true,true,true,true,true,true,true,false,true,true,true,true,true,true,false,false,false,false,false,false,false,false,false,false,false,false,false],"id":24,"leaf_child_counts":[0,0,0,0,0,0,0,0,0,0,0,0,0,0,0,0,0,0,0,0,0,0,0,0,0,0,0],"left_children":[1,3,5,7,9,11,13,-1,15,17,19,21,23,25,-1,-1,-1,-1,-1,-1,-1,-1,-1,-1,-1,-1,-1],"loss_changes":[1.5969002E2,3.2759926E1,8.593147E0,5.5305405E0,1.109416E1,4.1172605E0,3.889618E-1,0E0,1.3249855E0,8.483093E0,2.6549902E0,2.7266166E0,3.8027906E0,1.0547421E0,0E0,0E0,0E0,0E0,0E0,0E0,0E0,0E0,0E0,0E0,0E0,0E0,0E0],"parents":[2147483647,0,0,1,1,2,2,3,3,4,4,5,5,6,6,8,8,9,9,10,10,11,11,12,12,13,13],"right_children":[2,4,6,8,10,12,14,-1,16,18,20,22,24,26,-1,-1,-1,-1,-1,-1,-1,-1,-1,-1,-1,-1,-1],"split_conditions":[4.1137494E-2,2.6699323E-2,2.0881426E-2,2.6574686E-2,1.4578877E-2,4.9184823E-1,4.597745E-2,-1.03822805E-1,4.8497304E-1,1.2541307E-2,4.091614E-2,4.9589294E-1,1.4024449E-2,4.973861E-1,1.03967786E-1,-2.6714502E-2,7.6226324E-2,-6.740358E-2,2.6699484E-3,9.309561E-2,-2.2858476E-2,3.0859414E-2,-1.3705027E-1,3.981523E-3,8.355128E-2,-1.3252807E-2,7.923061E-2],"split_indices":[33,7,10,2,20,3,9,0,3,2,0,6,10,17,0,0,0,0,0,0,0,0,0,0,0,0,0],"sum_hessian":[2.9787073E2,1.7680229E2,1.2106843E2,9.6246124E1,8.055617E1,2.60298E1,9.503863E1,9.300754E1,3.2385907E0,6.8823524E1,1.1732641E1,2.410342E0,2.3619457E1,4.119814E0,9.0918816E1,1.93822E0,1.3003707E0,3.0062674E1,3.8760853E1,9.735109E0,1.9975313E0,1.1734803E0,1.2368617E0,1.0822165E1,1.2797294E1,1.4848785E0,2.6349351E0],"tree_param":{"num_deleted":"0","num_feature":"37","num_nodes":"27","size_leaf_vector":"0"}},{"base_weights":[2.0715685E-3,-5.687676E-1,8.8172734E-1,-9.8466164E-1,-1.1431409E-1,3.4238917E-1,1.0231385E0,-1.0323436E0,2.188803E-1,-2.5357834E-1,8.196481E-1,-1.7406594E0,5.0637347E-1,3.1672132E-1,1.0337982E0,-2.508737E-1,7.2361666E-1,9.6985275E-1,-3.4746575E-1,9.8106617E-1,1.255893E-1,-7.8930634E-1,6.3296413E-1],"default_left":[true,true,true,true,true,true,true,false,true,true,true,false,true,true,true,false,false,false,false,false,false,false,false],"id":25,"leaf_child_counts":[0,0,0,0,0,0,0,0,0,0,0,0,0,0,0,0,0,0,0,0,0,0,0],"left_children":[1,3,5,7,9,11,-1,-1,15,17,19,-1,21,-1,-1,-1,-1,-1,-1,-1,-1,-1,-1],"loss_changes":[1.4106435E2,3.208812E1,8.081673E0,5.323532E0,1.0943917E1,9.239634E0,3.283615E-1,0E0,1.179768E0,8.675617E0,1.1032372E0,0E0,4.3471575E0,0E0,0E0,0E0,0E0,0E0,0E0,0E0,0E0,0E0,0E0],"parents":[2147483647,0,0,1,1,2,2,3,3,4,4,5,5,6,6,8,8,9,9,10,10,12,12],"right_children":[2,4,6,8,10,12,-1,-1,16,18,20,-1,22,-1,-1,-1,-1,-1,-1,-1,-1,-1,-1],"split_conditions":[4.5100965E-2,2.6699323E-2,2.1820223E-2,2.6574686E-2,1.579332E-2,4.8987752E-1,1.02313854E-1,-1.03234366E-1,4.8497304E-1,4.8668784E-1,6.116087E-2,-1.7406593E-1,1.0746118E-2,3.167213E-2,1.0337982E-1,-2.5087371E-2,7.236167E-2,9.698527E-2,-3.4746576E-2,9.8106615E-2,1.255893E-2,-7.893064E-2,6.3296415E-2],"split_indices":[7,7,2,2,20,3,9,0,3,6,18,0,10,2147483647,2147483647,0,0,0,0,0,0,0,0],"sum_hessian":[2.789265E2,1.693699E2,1.095566E2,8.782761E1,8.15423E1,2.346874E1,8.608786E1,8.461747E1,3.2101371E0,7.159515E1,9.947148E0,1.0110353E0,2.2457705E1,1.7362922E0,8.435157E1,1.9231956E0,1.2869416E0,4.4377413E0,6.715741E1,7.734748E0,2.2124E0,1.5329154E0,2.092479E1],"tree_param":{"num_deleted":"2","num_feature":"37","num_nodes":"23","size_leaf_vector":"0"}},{"base_weights":[2.2772322E-3,-8.695415E-1,5.4364324E-1,-9.206088E-1,6.683935E-1,5.7037864E-2,9.8058313E-1,1.9623173E-2,-9.863357E-1,8.112617E-1,1.4117889E-1,-5.8270884E-1,2.1804635E-1,5.208385E-1,1.0263089E0,-5.89162E-1,1.2407566E0,-1.0186493E0,-3.4613904E-1,-1.3443227E-1,-9.995197E-1,4.03809E-1,-2.974624E-1,8.3068895E-1,-4.4129795E-1],"default_left":[true,true,true,true,true,true,true,true,true,true,true,true,true,true,false,false,false,false,false,false,false,false,false,false,false],"id":26,"leaf_child_counts":[0,0,0,0,0,0,0,0,0,0,0,0,0,0,0,0,0,0,0,0,0,0,0,0,0],"left_children":[1,3,5,7,-1,11,13,15,17,-1,-1,19,21,23,-1,-1,-1,-1,-1,-1,-1,-1,-1,-1,-1],"loss_changes":[1.2441861E2,8.546646E0,3.452105E1,6.0856094E0,1.7356467E-1,8.161598E0,1.2654572E0,6.2278748E0,1.5458145E0,0E0,0E0,2.8469882E0,6.1575046E0,3.2810135E0,0E0,0E0,0E0,0E0,0E0,0E0,0E0,0E0,0E0,0E0,0E0],"parents":[2147483647,0,0,1,1,2,2,3,3,4,4,5,5,6,6,7,7,8,8,11,11,12,12,13,13],"right_children":[2,4,6,8,-1,12,14,16,18,-1,-1,20,22,24,-1,-1,-1,-1,-1,-1,-1,-1,-1,-1,-1],"split_conditions":[3.302203E-2,2.986801E-2,5.223401E-2,4.9323264E-1,6.683935E-2,4.6772105E-1,2.0881426E-2,4.9839127E-1,1.4061248E-2,8.1126176E-2,1.4117889E-2,3.307936E-2,5.030422E-1,8.7721124E-2,1.0263089E-1,-5.89162E-2,1.24075666E-1,-1.01864934E-1,-3.4613904E-2,-1.3443227E-2,-9.9951975E-2,4.0380903E-2,-2.974624E-2,8.30689E-2,-4.4129796E-2],"split_indices":[7,10,7,31,11,8,10,29,18,2147483647,2147483647,4,8,4,0,0,0,0,0,0,0,0,0,0,0],"sum_hessian":[2.616122E2,9.998677E1,1.6162544E2,9.71619E1,2.8248715E0,7.7001724E1,8.462372E1,6.3941474E0,9.076775E1,1.7986828E0,1.0261886E0,1.495617E1,6.204555E1,8.77609E0,7.584763E1,4.6122704E0,1.7818774E0,8.584369E1,4.9240675E0,7.8432965E0,7.1128736E0,4.5769333E1,1.6276218E1,6.741613E0,2.034477E0],"tree_param":{"num_deleted":"2","num_feature":"37","num_nodes":"25","size_leaf_vector":"0"}},{"base_weights":[2.2268E-3,-5.357134E-1,8.29919E-1,-9.6664226E-1,-1.1174107E-1,2.9972118E-1,1.0008568E0,-1.0220793E0,2.3241165E-1,-2.0702393E-1,9.598519E-1,8.034736E-1,-4.4576988E-2,4.2943153E-1,1.0241764E0,-3.7128374E-1,5.98551E-1,6.7314684E-1,-3.4112072E-1,9.3723917E-1,-1.8447936E-1,-1.1886969E0,2.3888077E-1,7.569458E-1,-1.956632E-1],"default_left":[true,true,true,true,true,true,true,false,true,true,false,true,true,true,false,false,false,false,false,false,false,false,false,false,false],"id":27,"leaf_child_counts":[0,0,0,0,0,0,0,0,0,0,0,0,0,0,0,0,0,0,0,0,0,0,0,0,0],"left_children":[1,3,5,7,9,11,13,-1,15,17,-1,19,21,23,-1,-1,-1,-1,-1,-1,-1,-1,-1,-1,-1],"loss_changes":[1.104429E2,2.7359573E1,8.555389E0,5.184929E0,8.051858E0,4.415002E0,5.390549E-1,0E0,1.129319E0,8.663322E0,0E0,1.534523E0,5.4552555E0,1.0903285E0,0E0,0E0,0E0,0E0,0E0,0E0,0E0,0E0,0E0,0E0,0E0],"parents":[2147483647,0,0,1,1,2,2,3,3,4,4,5,5,6,6,8,8,9,9,11,11,12,12,13,13],"right_children":[2,4,6,8,10,12,14,-1,16,18,-1,20,22,24,-1,-1,-1,-1,-1,-1,-1,-1,-1,-1,-1],"split_conditions":[4.1137494E-2,2.6699323E-2,2.0881426E-2,2.6574686E-2,3.2990754E-2,5.0027406E-1,4.597745E-2,-1.0220794E-1,2.9319744E-3,8.910704E-3,9.59852E-2,5.1000893E-1,4.940802E-1,4.0535368E-2,1.0241764E-1,-3.7128374E-2,5.98551E-2,6.7314684E-2,-3.4112073E-2,9.3723916E-2,-1.8447936E-2,-1.18869685E-1,2.3888078E-2,7.569458E-2,-1.956632E-2],"split_indices":[33,7,10,2,2,17,9,0,18,4,0,35,3,9,0,0,0,0,0,0,0,0,0,0,0],"sum_hessian":[2.4604904E2,1.4934096E2,9.6708084E1,7.3428085E1,7.591287E1,2.4248846E1,7.2459236E1,7.03243E1,3.1037846E0,7.045503E1,5.4578443E0,9.3032875E0,1.4945559E1,3.602324E0,6.885691E1,1.1664597E0,1.9373248E0,8.783424E0,6.1671604E1,8.239076E0,1.0642118E0,2.33346E0,1.2612099E1,2.225407E0,1.3769171E0],"tree_param":{"num_deleted":"0","num_feature":"37","num_nodes":"25","size_leaf_vector":"0"}},{"base_weights":[3.073417E-3,-8.3858174E-1,4.9591282E-1,-9.4444114E-1,5.686344E-2,4.9302645E-2,9.625387E-1,5.8090743E-2,-9.975331E-1,4.5543754E-1,-3.8625377E-1,-4.2164436E-1,2.425641E-1,4.841384E-1,1.0165743E0,-7.517284E-1,1.1044321E0,-3.0649131E-2,-1.0106771E0,-5.5791014E-1,9.781799E-1,5.4459083E-1,-8.809083E-1,3.4857354E-1,-6.3120025E-1,8.871558E-1,-5.728546E-3,8.019933E-1,-4.2181838E-1],"default_left":[true,true,true,true,true,true,true,true,true,true,true,true,true,true,false,false,false,true,true,false,false,false,false,false,false,false,false,false,false],"id":28,"leaf_child_counts":[0,0,0,0,0,0,0,0,0,0,0,0,0,0,0,0,0,0,0,0,0,0,0,0,0,0,0,0,0],"left_children":[1,3,5,7,9,11,13,15,-1,19,21,23,25,27,-1,-1,-1,-1,-1,-1,-1,-1,-1,-1,-1,-1,-1,-1,-1],"loss_changes":[9.70828E1,8.247154E0,3.0713932E1,4.1752853E0,1.9564459E0,7.0627475E0,1.3725052E0,4.9275837E0,9.033661E-1,3.600299E0,2.9270315E0,3.870462E0,8.785039E0,2.9961352E0,0E0,0E0,0E0,0E0,0E0,0E0,0E0,0E0,0E0,0E0,0E0,0E0,0E0,0E0,0E0],"parents":[2147483647,0,0,1,1,2,2,3,3,4,4,5,5,6,6,7,7,8,8,9,9,10,10,11,11,12,12,13,13],"right_children":[2,4,6,8,10,12,14,16,-1,20,22,24,26,28,-1,-1,-1,-1,-1,-1,-1,-1,-1,-1,-1,-1,-1,-1,-1],"split_conditions":[3.302203E-2,2.0555623E-2,5.223401E-2,4.9323264E-1,5.0985926E-1,4.7295657E-1,2.0881426E-2,4.986645E-1,-9.975331E-2,2.9150112E-2,4.8150963E-1,4.921954E-1,4.8340023E-1,8.7721124E-2,1.0165743E-1,-7.517284E-2,1.1044321E-1,-3.0649132E-3,-1.01067714E-1,-5.5791017E-2,9.781799E-2,5.4459084E-2,-8.809083E-2,3.4857355E-2,-6.312003E-2,8.8715576E-2,-5.728546E-4,8.019933E-2,-4.218184E-2],"split_indices":[7,2,7,31,29,8,10,29,17,9,6,6,8,4,0,0,0,2147483647,2147483647,0,0,0,0,0,0,0,0,0,0],"sum_hessian":[2.3204422E2,8.543668E1,1.4660753E2,7.635526E1,9.081427E0,7.5475334E1,7.11322E1,3.8355026E0,7.251976E1,4.766374E0,4.315052E0,2.1616844E1,5.385849E1,8.229802E0,6.2902397E1,2.3208435E0,1.5146592E0,1.0173168E0,7.150244E1,1.5991367E0,3.1672375E0,1.4623115E0,2.8527403E0,4.481565E0,1.7135279E1,1.4261427E1,3.9597065E1,6.177265E0,2.0525374E0],"tree_param":{"num_deleted":"2","num_feature":"37","num_nodes":"29","size_leaf_vector":"0"}},{"base_weights":[3.523881E-3,-4.555678E-1,8.5040945E-1,-9.633817E-1,-1.42596485E-2,2.4755946E-1,9.9145955E-1,-1.0014263E0,1.3659684E-1,1.7168969E-1,-6.39484E-1,-9.697133E-2,9.5097744E-1,3.3279407E-1,1.006454E0,7.882768E-1,-5.493249E-1,-9.454391E-1,3.2430768E-1,-1.0508554E0,8.6833365E-2,-4.9729726E-1,6.1021465E-1,3.1249753E-1,1.0181248E0],"default_left":[true,true,true,true,true,true,true,false,true,true,true,true,false,true,true,false,false,false,false,false,false,false,false,true,true],"id":29,"leaf_child_counts":[0,0,0,0,0,0,0,0,0,0,0,0,0,0,0,0,0,0,0,0,0,0,0,0,0],"left_children":[1,3,5,7,9,11,-1,-1,15,17,19,21,-1,-1,-1,-1,-1,-1,-1,-1,-1,-1,-1,-1,-1],"loss_changes":[8.585707E1,3.20787E1,6.355259E0,2.9226227E0,9.135573E0,3.9822564E0,2.830658E-1,0E0,1.8211515E0,1.064302E1,5.4718437E0,3.6106E0,0E0,0E0,1.733551E-1,0E0,0E0,0E0,0E0,0E0,0E0,0E0,0E0,0E0,0E0],"parents":[2147483647,0,0,1,1,2,2,3,3,4,4,5,5,6,6,8,8,9,9,10,10,11,11,14,14],"right_children":[2,4,6,8,10,12,-1,-1,16,18,20,22,-1,-1,-1,-1,-1,-1,-1,-1,-1,-1,-1,-1,-1],"split_conditions":[2.2323553E-2,3.0598603E-2,3.7540708E-2,1.8270858E-2,5.065485E-1,3.3817787E-2,9.914596E-2,-1.00142635E-1,4.026755E-2,4.9351758E-1,1.6849712E-1,6.076642E-3,9.509774E-2,3.3279408E-2,1.006454E-1,7.882768E-2,-5.4932494E-2,-9.454391E-2,3.2430768E-2,-1.05085544E-1,8.683337E-3,-4.9729727E-2,6.1021466E-2,3.1249752E-2,1.0181248E-1],"split_indices":[10,7,33,20,32,2,14,0,11,35,24,20,0,2147483647,2147483647,0,0,0,0,0,0,0,0,2147483647,2147483647],"sum_hessian":[2.1883041E2,1.4220435E2,7.662607E1,6.556992E1,7.6634415E1,1.5051381E1,6.1574688E1,6.3464497E1,2.1054292E0,5.962624E1,1.7008175E1,1.0681685E1,4.369696E0,1.886807E0,5.968788E1,1.0031422E0,1.102287E0,6.5424194E0,5.308382E1,1.057301E1,6.435165E0,7.010152E0,3.6715333E0,1.4466211E0,5.824126E1],"tree_param":{"num_deleted":"4","num_feature":"37","num_nodes":"25","size_leaf_vector":"0"}},{"base_weights":[3.1599985E-3,-3.8612098E-1,9.4552946E-1,-8.945683E-1,7.7346936E-3,4.6449813E-1,1.0077152E0,-9.4641817E-1,1.22175105E-1,2.8414705E-1,-3.524473E-1,7.413437E-1,-4.8852673E-1,-9.792071E-1,-2.5224136E-2,9.303152E-1,-5.6661147E-1,-3.0186108E-1,6.186987E-1,4.643589E-1,-6.338773E-1,9.2086154E-1,-1.8949112E-1],"default_left":[true,true,true,true,true,true,false,true,true,true,true,true,false,false,false,false,false,false,false,false,false,false,false],"id":30,"leaf_child_counts":[0,0,0,0,0,0,0,0,0,0,0,0,0,0,0,0,0,0,0,0,0,0,0],"left_children":[1,3,5,7,9,11,-1,13,15,17,19,21,-1,-1,-1,-1,-1,-1,-1,-1,-1,-1,-1],"loss_changes":[7.66586E1,2.9621628E1,1.3592033E0,3.519127E0,8.495401E0,2.6966376E0,0E0,1.8341827E0,2.7638266E0,9.648938E0,8.813583E0,1.3865736E0,0E0,0E0,0E0,0E0,0E0,0E0,0E0,0E0,0E0,0E0,0E0],"parents":[2147483647,0,0,1,1,2,2,3,3,4,4,5,5,7,7,8,8,9,9,10,10,11,11],"right_children":[2,4,6,8,10,12,-1,14,16,18,20,22,-1,-1,-1,-1,-1,-1,-1,-1,-1,-1,-1],"split_conditions":[5.223401E-2,1.0618815E-2,2.0881426E-2,3.386455E-2,5.040066E-1,1.9494131E-2,1.00771524E-1,5.078287E-1,4.0149577E-2,4.950813E-1,4.8666346E-1,5.2729607E-1,-4.8852675E-2,-9.792071E-2,-2.5224136E-3,9.303152E-2,-5.6661148E-2,-3.0186107E-2,6.186987E-2,4.643589E-2,-6.338773E-2,9.208616E-2,-1.8949112E-2],"split_indices":[7,10,10,16,35,10,0,28,16,35,6,8,0,0,0,0,0,0,0,0,0,0,0],"sum_hessian":[2.069712E2,1.468851E2,6.008612E1,6.3560482E1,8.3324615E1,7.8480344E0,5.2238087E1,6.0542236E1,3.018244E0,4.7264103E1,3.6060513E1,6.2535477E0,1.5944868E0,5.8400555E1,2.141683E0,1.2274464E0,1.7907975E0,1.7212326E1,3.0051777E1,9.074167E0,2.6986343E1,5.2514787E0,1.0020692E0],"tree_param":{"num_deleted":"0","num_feature":"37","num_nodes":"23","size_leaf_vector":"0"}},{"base_weights":[3.4811965E-3,-6.619584E-1,5.2326494E-1,-1.0021416E0,-2.7052444E-1,1.0236348E-1,9.899201E-1,5.5829066E-1,-4.6247923E-1,4.005664E-1,-3.5433346E-1,-1.8496946E-2,1.5967937E0,-5.5094594E-1,7.9982126E-1,-1.723005E-1,7.211998E-1,4.085407E-1,-8.151758E-1],"default_left":[true,true,true,false,true,true,false,true,true,true,true,false,false,false,false,false,false,false,false],"id":31,"leaf_child_counts":[0,0,0,0,0,0,0,0,0,0,0,0,0,0,0,0,0,0,0],"left_children":[1,3,5,-1,7,9,-1,11,13,15,17,-1,-1,-1,-1,-1,-1,-1,-1],"loss_changes":[6.853017E1,1.1299496E1,2.1747128E1,0E0,6.9040356E0,8.258803E0,0E0,5.0062275E0,4.289345E0,6.833403E0,8.796645E0,0E0,0E0,0E0,0E0,0E0,0E0,0E0,0E0],"parents":[2147483647,0,0,1,1,2,2,4,4,5,5,7,7,8,8,9,9,10,10],"right_children":[2,4,6,-1,8,10,-1,12,14,16,18,-1,-1,-1,-1,-1,-1,-1,-1],"split_conditions":[1.397704E-2,2.6699323E-2,4.9054097E-2,-1.0021416E-1,9.932572E-3,5.0672376E-1,9.899201E-2,8.138158E-3,1.541283E-2,4.9362862E-1,4.8666346E-1,-1.8496945E-3,1.5967937E-1,-5.5094596E-2,7.9982124E-2,-1.723005E-2,7.211998E-2,4.085407E-2,-8.151758E-2],"split_indices":[10,7,33,0,5,32,0,0,2,35,6,0,0,0,0,0,0,0,0],"sum_hessian":[1.9612868E2,8.5892944E1,1.1023573E2,4.5120197E1,4.0772747E1,5.860031E1,5.163542E1,7.3083944E0,3.346435E1,3.5526184E1,2.3074123E1,5.3301835E0,1.9782109E0,3.179928E1,1.6650724E0,1.2914618E1,2.2611568E1,8.73228E0,1.4341844E1],"tree_param":{"num_deleted":"0","num_feature":"37","num_nodes":"19","size_leaf_vector":"0"}},{"base_weights":[4.4238777E-3,-3.434705E-1,9.2576504E-1,-9.2471516E-1,-1.8523341E-2,4.124701E-1,9.992554E-1,-1.0012478E0,1.9182289E-1,-1.9782984E-1,5.0287426E-1,7.048541E-1,-4.9375802E-1,-2.785645E-1,6.8451446E-1,2.612141E-1,-5.1630473E-1,-5.33389E-2,1.0755869E0,8.921547E-1,-1.6179402E-1],"default_left":[true,true,true,true,true,true,false,false,true,true,true,true,false,false,false,false,false,false,false,false,false],"id":32,"leaf_child_counts":[0,0,0,0,0,0,0,0,0,0,0,0,0,0,0,0,0,0,0,0,0],"left_children":[1,3,5,7,9,11,-1,-1,13,15,17,19,-1,-1,-1,-1,-1,-1,-1,-1,-1],"loss_changes":[6.020972E1,2.5738861E1,1.5300217E0,4.368801E0,8.372192E0,2.5078282E0,0E0,0E0,1.1118308E0,9.865801E0,7.3604107E0,1.2115896E0,0E0,0E0,0E0,0E0,0E0,0E0,0E0,0E0,0E0],"parents":[2147483647,0,0,1,1,2,2,3,3,4,4,5,5,8,8,9,9,10,10,11,11],"right_children":[2,4,6,8,10,12,-1,-1,14,16,18,20,-1,-1,-1,-1,-1,-1,-1,-1,-1],"split_conditions":[5.223401E-2,2.6699323E-2,2.0881426E-2,2.6574686E-2,5.0551665E-1,1.9494131E-2,9.992554E-2,-1.0012478E-1,4.8497304E-1,4.9462193E-1,4.9432498E-1,5.2534485E-1,-4.9375802E-2,-2.7856452E-2,6.845145E-2,2.6121411E-2,-5.1630475E-2,-5.33389E-3,1.0755869E-1,8.921547E-2,-1.6179403E-2],"split_indices":[7,7,10,2,6,10,0,0,3,6,35,8,0,0,0,0,0,0,0,0,0],"sum_hessian":[1.8585258E2,1.3536612E2,5.0486454E1,4.7878464E1,8.748766E1,7.1512194E0,4.333523E1,4.490381E1,2.9746532E0,6.5561806E1,2.192586E1,5.5747895E0,1.5764301E0,1.7441078E0,1.2305453E0,2.6928028E1,3.8633778E1,1.1583216E1,1.0342644E1,4.5598745E0,1.0149146E0],"tree_param":{"num_deleted":"0","num_feature":"37","num_nodes":"21","size_leaf_vector":"0"}},{"base_weights":[5.046479E-3,-7.613059E-1,3.9641526E-1,2.1993588E-1,-8.782295E-1,2.636799E-2,9.030244E-1,-7.5647813E-1,6.9267684E-1,1.2837581E-1,-9.553474E-1,2.0268784E-1,-4.4675937E-1,2.8380707E-2,9.622886E-1,-2.191453E-1,9.6629375E-1,-4.252658E-1,4.9105534E-1,6.377203E-2,-9.7762823E-1,-5.2420485E-1,4.0962744E-1,-8.3083695E-1,2.5220677E-1,6.977932E-1,-7.1491283E-1,1.2881592E-1,9.9495274E-1],"default_left":[true,true,true,true,true,true,true,false,true,true,true,true,true,true,true,false,false,false,false,false,false,false,false,false,false,false,false,false,false],"id":33,"leaf_child_counts":[0,0,0,0,0,0,0,0,0,0,0,0,0,0,0,0,0,0,0,0,0,0,0,0,0,0,0,0,0],"left_children":[1,3,5,7,9,11,13,-1,15,17,19,21,23,25,27,-1,-1,-1,-1,-1,-1,-1,-1,-1,-1,-1,-1,-1,-1],"loss_changes":[5.3565063E1,7.1201286E0,2.213725E1,3.8604097E0,4.3260117E0,5.875281E0,2.5576286E0,0E0,1.5570483E0,1.159536E0,1.2070732E0,7.9171243E0,5.347337E0,2.5861473E0,1.1425056E0,0E0,0E0,0E0,0E0,0E0,0E0,0E0,0E0,0E0,0E0,0E0,0E0,0E0,0E0],"parents":[2147483647,0,0,1,1,2,2,3,3,4,4,5,5,6,6,8,8,9,9,10,10,11,11,12,12,13,13,14,14],"right_children":[2,4,6,8,10,12,14,-1,16,18,20,22,24,26,28,-1,-1,-1,-1,-1,-1,-1,-1,-1,-1,-1,-1,-1,-1],"split_conditions":[3.302203E-2,4.9323264E-1,2.35348E-2,2.3867335E-2,4.8624492E-1,5.056018E-1,3.81833E-2,-7.5647816E-2,5.013755E-1,4.2382985E-1,4.83813E-1,4.9447066E-1,1.6971242E-1,3.8220175E-2,5.4425216E-1,-2.191453E-2,9.6629374E-2,-4.252658E-2,4.9105536E-2,6.377203E-3,-9.776282E-2,-5.2420486E-2,4.0962745E-2,-8.30837E-2,2.5220677E-2,6.977932E-2,-7.1491286E-2,1.2881592E-2,9.949528E-2],"split_indices":[7,31,2,9,6,32,7,0,17,19,17,32,24,36,14,0,0,0,0,0,0,0,0,0,0,0,0,0,0],"sum_hessian":[1.765878E2,5.937614E1,1.1721166E2,6.2280774E0,5.3148064E1,6.834317E1,4.8868496E1,1.8359183E0,4.392159E0,3.734727E0,4.9413338E1,5.0204945E1,1.8138222E1,3.1949599E0,4.567354E1,1.059726E0,3.3324332E0,1.4099016E0,2.3248253E0,1.0173576E0,4.839598E1,1.0785798E1,3.9419147E1,1.1584142E1,6.55408E0,1.7132322E0,1.4817277E0,1.9088986E0,4.3764637E1],"tree_param":{"num_deleted":"0","num_feature":"37","num_nodes":"29","size_leaf_vector":"0"}},{"base_weights":[4.441728E-3,-3.0971223E-1,9.112647E-1,-9.054906E-1,-1.994198E-2,-2.5698182E-1,9.639368E-1,-9.9321723E-1,1.8515173E-1,-1.795762E-1,4.4935918E-1,2.5269276E-1,9.7677785E-1,-2.5714293E-1,6.4269084E-1,-4.4713715E-1,3.2393438E-1,-4.654516E-1,7.5316024E-1],"default_left":[true,true,true,true,true,false,true,false,true,true,true,true,true,true,true,false,false,false,false],"id":34,"leaf_child_counts":[0,0,0,0,0,0,0,0,0,0,0,0,0,0,0,0,0,0,0],"left_children":[1,3,5,7,9,-1,-1,-1,-1,15,17,-1,-1,-1,-1,-1,-1,-1,-1],"loss_changes":[4.842834E1,2.1780334E1,2.9390793E0,4.1348724E0,6.521381E0,0E0,1.3732529E-1,0E0,9.5796293E-1,8.88344E0,6.4944143E0,0E0,0E0,0E0,0E0,0E0,0E0,0E0,0E0],"parents":[2147483647,0,0,1,1,2,2,3,3,4,4,6,6,8,8,9,9,10,10],"right_children":[2,4,6,8,10,-1,-1,-1,-1,16,18,-1,-1,-1,-1,-1,-1,-1,-1],"split_conditions":[4.9140766E-2,2.6699323E-2,1.2930296E-2,2.6574686E-2,5.0551665E-1,-2.5698183E-2,9.639368E-2,-9.932172E-2,1.8515173E-2,5.0656855E-1,5.013814E-1,2.5269276E-2,9.767779E-2,-2.5714293E-2,6.426909E-2,-4.4713717E-2,3.2393437E-2,-4.654516E-2,7.531603E-2],"split_indices":[33,7,10,2,6,0,21,0,3,34,17,2147483647,2147483647,2147483647,2147483647,0,0,0,0],"sum_hessian":[1.680037E2,1.25265854E2,4.2737835E1,4.0294342E1,8.497151E1,1.6764271E0,4.106141E1,3.7377205E1,2.917136E0,6.3864994E1,2.1106518E1,1.0949073E0,3.9966503E1,1.7059817E0,1.2111542E0,4.1777023E1,2.2087969E1,5.1292233E0,1.5977295E1],"tree_param":{"num_deleted":"4","num_feature":"37","num_nodes":"19","size_leaf_vector":"0"}},{"base_weights":[4.2925198E-3,-2.9339874E-1,8.958699E-1,-9.9417216E-1,-4.8732564E-2,3.6392447E-1,9.872115E-1,8.024313E-1,-1.3275772E-1,7.1039206E-1,-4.4087738E-1,3.8560244E-1,1.7720082E0,-2.1219881E-1,8.06716E-1,8.4609526E-1,4.360246E-2],"default_left":[true,true,true,false,true,true,false,true,true,true,false,false,false,false,false,true,true],"id":35,"leaf_child_counts":[0,0,0,0,0,0,0,0,0,0,0,0,0,0,0,0,0],"left_children":[1,3,5,-1,7,9,-1,11,13,-1,-1,-1,-1,-1,-1,-1,-1],"loss_changes":[4.3019753E1,2.078745E1,1.6120262E0,0E0,6.6238284E0,2.412703E0,0E0,2.6830688E0,6.4251947E0,4.7403288E-1,0E0,0E0,0E0,0E0,0E0,0E0,0E0],"parents":[2147483647,0,0,1,1,2,2,4,4,5,5,7,7,8,8,9,9],"right_children":[2,4,6,-1,8,10,-1,12,14,-1,-1,-1,-1,-1,-1,-1,-1],"split_conditions":[5.223401E-2,8.3185015E-3,2.0881426E-2,-9.941722E-2,9.933041E-3,8.7721124E-2,9.8721154E-2,8.033014E-3,3.3811703E-2,7.103921E-2,-4.4087738E-2,3.8560245E-2,1.7720082E-1,-2.1219881E-2,8.06716E-2,8.460953E-2,4.360246E-3],"split_indices":[7,10,10,0,5,4,0,4,2,2,0,0,0,0,0,2147483647,2147483647],"sum_hessian":[1.6009467E2,1.2052361E2,3.9571045E1,3.0397022E1,9.0126595E1,6.529493E0,3.3041553E1,7.32953E0,8.2797066E1,4.6464863E0,1.8830066E0,6.103352E0,1.2261779E0,7.705545E1,5.7416115E0,3.63732E0,1.0091661E0],"tree_param":{"num_deleted":"2","num_feature":"37","num_nodes":"17","size_leaf_vector":"0"}},{"base_weights":[6.1985594E-3,-8.0290467E-1,3.0983296E-1,-8.743244E-1,2.552553E-1,3.0002944E-2,9.285792E-1,-9.3692875E-1,-3.619126E-2,8.4180725E-1,-4.2790294E-1,2.6547763E-1,-2.8057408E-1,-5.6085184E-2,9.613511E-1,-3.293559E-1,-1.0036227E0,7.854194E-1,-6.390476E-1,1.1075773E0,7.0789926E-2,3.8451204E-1,-5.0542486E-1],"default_left":[true,true,true,true,true,true,true,true,true,false,false,true,true,false,false,false,false,false,false,false,false,false,false],"id":36,"leaf_child_counts":[0,0,0,0,0,0,0,0,0,0,0,0,0,0,0,0,0,0,0,0,0,0,0],"left_children":[1,3,5,7,9,11,13,15,17,-1,-1,19,21,-1,-1,-1,-1,-1,-1,-1,-1,-1,-1],"loss_changes":[3.82345E1,3.4327698E0,1.9563385E1,2.0654793E0,1.7463636E0,5.8481116E0,1.1899014E0,1.1764221E0,2.3945389E0,0E0,0E0,7.367441E0,5.3582187E0,0E0,0E0,0E0,0E0,0E0,0E0,0E0,0E0,0E0,0E0],"parents":[2147483647,0,0,1,1,2,2,3,3,4,4,5,5,6,6,7,7,8,8,11,11,12,12],"right_children":[2,4,6,8,10,12,14,16,18,-1,-1,20,22,-1,-1,-1,-1,-1,-1,-1,-1,-1,-1],"split_conditions":[1.0618815E-2,3.386455E-2,5.0792493E-2,6.86588E-2,4.0149577E-2,5.041399E-1,1.2930296E-2,4.2215985E-1,2.7685023E-3,8.418073E-2,-4.2790294E-2,4.9476022E-1,4.8666346E-1,-5.6085186E-3,9.613511E-2,-3.293559E-2,-1.0036226E-1,7.854194E-2,-6.390476E-2,1.1075773E-1,7.0789927E-3,3.8451206E-2,-5.0542485E-2],"split_indices":[10,16,33,9,16,35,10,19,18,0,0,6,6,0,0,0,0,0,0,0,0,0,0],"sum_hessian":[1.5361998E2,4.1469833E1,1.12150154E2,3.9010574E1,2.459258E0,7.79469E1,3.420325E1,3.618952E1,2.8210545E0,1.1982368E0,1.2610213E0,4.4416336E1,3.3530563E1,1.0787808E0,3.312447E1,4.167001E0,3.2022522E1,1.0657513E0,1.7553033E0,7.4599915E0,3.6956345E1,8.292398E0,2.5238167E1],"tree_param":{"num_deleted":"0","num_feature":"37","num_nodes":"23","size_leaf_vector":"0"}},{"base_weights":[6.626941E-3,-7.008112E-1,3.3182818E-1,-8.506291E-1,1.1712252E-1,3.3838864E-2,8.5430795E-1,8.247069E-2,-9.4540584E-1,-3.830768E-1,1.0388685E0,1.940558E-1,-3.93406E-1,-1.5732834E-2,9.308585E-1,-4.3374705E-1,4.3922147E-1,6.392156E-2,-9.7604495E-1,6.483928E-1,-8.751486E-1,1.9759843E-1,1.3643711E0,-6.827494E-1,3.5803112E-1,-7.541045E-1,2.6017824E-1,6.573971E-1,-6.950725E-1,7.095054E-3,9.7515494E-1],"default_left":[true,true,true,true,true,true,true,true,true,true,true,true,true,true,true,false,false,false,false,false,false,true,true,false,false,false,false,false,false,false,false],"id":37,"leaf_child_counts":[0,0,0,0,0,0,0,0,0,0,0,0,0,0,0,0,0,0,0,0,0,0,0,0,0,0,0,0,0,0,0],"left_children":[1,3,5,7,9,11,13,15,17,19,-1,23,25,27,29,-1,-1,-1,-1,-1,-1,-1,-1,-1,-1,-1,-1,-1,-1,-1,-1],"loss_changes":[3.4315548E1,5.8561916E0,1.5878574E1,3.5999527E0,4.1562395E0,4.6013474E0,2.4833813E0,1.0361602E0,1.1828995E0,3.6201885E0,5.8938146E-1,7.252867E0,4.5242662E0,2.2773724E0,1.3878613E0,0E0,0E0,0E0,0E0,0E0,0E0,0E0,0E0,0E0,0E0,0E0,0E0,0E0,0E0,0E0,0E0],"parents":[2147483647,0,0,1,1,2,2,3,3,4,4,5,5,6,6,7,7,8,8,9,9,10,10,11,11,12,12,13,13,14,14],"right_children":[2,4,6,8,10,12,14,16,18,20,-1,24,26,28,30,-1,-1,-1,-1,-1,-1,-1,-1,-1,-1,-1,-1,-1,-1,-1,-1],"split_conditions":[3.302203E-2,5.0567263E-1,2.35348E-2,4.8624492E-1,4.9840683E-1,5.056018E-1,3.81833E-2,4.2382985E-1,4.8463893E-1,4.8668253E-1,1.0388686E-1,4.9351758E-1,1.6971242E-1,3.8220175E-2,5.4425216E-1,-4.3374706E-2,4.392215E-2,6.3921562E-3,-9.76045E-2,6.483928E-2,-8.751486E-2,1.9759843E-2,1.364371E-1,-6.827494E-2,3.5803113E-2,-7.541045E-2,2.6017824E-2,6.573971E-2,-6.950725E-2,7.095054E-4,9.751549E-2],"split_indices":[7,6,2,6,29,32,7,19,17,31,32,35,24,36,14,0,0,0,0,0,0,2147483647,2147483647,0,0,0,0,0,0,0,0],"sum_hessian":[1.4714845E2,4.59766E1,1.0117186E2,3.882517E1,7.1514335E0,6.510491E1,3.6066944E1,3.5918999E0,3.523327E1,5.014591E0,2.1368425E0,4.774596E1,1.7358952E1,2.9809713E0,3.308597E1,1.3796796E0,2.2122204E0,1.006025E0,3.422724E1,1.5170037E0,3.4975874E0,1.044461E0,1.0923814E0,7.0239444E0,4.0722015E1,1.1086669E1,6.2722826E0,1.5135533E0,1.4674182E0,1.5670338E0,3.151894E1],"tree_param":{"num_deleted":"2","num_feature":"37","num_nodes":"31","size_leaf_vector":"0"}},{"base_weights":[6.101903E-3,-2.4206866E-1,8.676532E-1,-8.978411E-1,-1.1807631E-2,-8.1972234E-2,9.5130765E-1,-9.7667074E-1,-1.4005569E-2,-1.0111261E-1,7.393739E-1,-5.162285E-1,4.136062E-1,4.0101624E-1,9.7781944E-1,3.47069E-1,-3.3737934E-1,-2.5258616E-1,3.72254E-1,8.7113714E-1,-1.08642615E-1,5.7673264E-1,2.643581E-2],"default_left":[true,true,true,true,true,true,true,false,true,true,true,true,true,true,true,true,true,false,false,false,false,true,true],"id":38,"leaf_child_counts":[0,0,0,0,0,0,0,0,0,0,0,0,0,0,0,0,0,0,0,0,0,0,0],"left_children":[1,3,5,7,9,-1,-1,-1,-1,17,19,-1,-1,-1,-1,-1,-1,-1,-1,-1,-1,-1,-1],"loss_changes":[3.0529905E1,1.6731499E1,2.6145744E0,1.9929485E0,5.647772E0,9.679885E-1,3.7164688E-2,0E0,5.1092803E-1,5.4808564E0,1.0943933E0,0E0,0E0,1.853534E-1,0E0,0E0,0E0,0E0,0E0,0E0,0E0,0E0,0E0],"parents":[2147483647,0,0,1,1,2,2,3,3,4,4,5,5,6,6,8,8,9,9,10,10,13,13],"right_children":[2,4,6,8,10,-1,-1,-1,-1,18,20,-1,-1,-1,-1,-1,-1,-1,-1,-1,-1,-1,-1],"split_conditions":[4.9140766E-2,2.477412E-2,1.3683764E-2,2.6574686E-2,1.8506065E-2,-8.197224E-3,9.5130764E-2,-9.7667076E-2,-1.4005569E-3,5.0551665E-1,3.409091E-1,-5.162285E-2,4.136062E-2,4.0101625E-2,9.778195E-2,3.47069E-2,-3.3737935E-2,-2.5258616E-2,3.7225403E-2,8.7113716E-2,-1.0864262E-2,5.7673264E-2,2.643581E-3],"split_indices":[33,7,10,2,20,3,2,0,20,6,23,2147483647,2147483647,2147483647,2147483647,2147483647,2147483647,0,0,0,0,2147483647,2147483647],"sum_hessian":[1.4080644E2,1.0987569E2,3.0930752E1,2.780088E1,8.207481E1,2.505785E0,2.8424967E1,2.5427917E1,2.3729634E0,7.412748E1,7.9473257E0,1.3133119E0,1.1924732E0,2.047707E0,2.637726E1,1.0865085E0,1.286455E0,5.651086E1,1.7616621E1,6.8549523E0,1.0923737E0,1.0264983E0,1.0212086E0],"tree_param":{"num_deleted":"8","num_feature":"37","num_nodes":"23","size_leaf_vector":"0"}},{"base_weights":[6.397089E-3,-7.582669E-1,2.69035E-1,-8.344326E-1,2.4732395E-1,3.4754716E-2,9.005771E-1,-8.947247E-1,1.677451E-1,7.625004E-1,-3.915032E-1,2.3401956E-1,-2.310218E-1,-5.506994E-2,9.4102836E-1,-9.602024E-1,-8.387593E-2,1.0498803E0,4.5650993E-2,-4.028781E-1,4.6255308E-1,3.8147566E-1,9.717079E-1],"default_left":[true,true,true,true,true,true,true,true,false,false,false,true,true,false,true,false,false,false,false,false,false,true,true],"id":39,"leaf_child_counts":[0,0,0,0,0,0,0,0,0,0,0,0,0,0,0,0,0,0,0,0,0,0,0],"left_children":[1,3,5,7,9,11,13,15,-1,-1,-1,17,19,-1,-1,-1,-1,-1,-1,-1,-1,-1,-1],"loss_changes":[2.759545E1,2.8971443E0,1.50988655E1,2.1371994E0,1.3664615E0,4.059416E0,1.1199207E0,1.5747871E0,0E0,0E0,0E0,6.671091E0,4.1090374E0,0E0,8.532524E-2,0E0,0E0,0E0,0E0,0E0,0E0,0E0,0E0],"parents":[2147483647,0,0,1,1,2,2,3,3,4,4,5,5,6,6,7,7,11,11,12,12,14,14],"right_children":[2,4,6,8,10,12,14,16,-1,-1,-1,18,20,-1,-1,-1,-1,-1,-1,-1,-1,-1,-1],"split_conditions":[1.0618815E-2,3.386455E-2,5.0792493E-2,5.078287E-1,4.0149577E-2,5.041399E-1,1.2930296E-2,3.7847765E-2,1.6774511E-2,7.625004E-2,-3.9150324E-2,4.9476022E-1,5.142276E-1,-5.5069937E-3,9.410284E-2,-9.6020244E-2,-8.387594E-3,1.0498803E-1,4.5650993E-3,-4.028781E-2,4.625531E-2,3.8147565E-2,9.717079E-2],"split_indices":[10,16,33,28,16,35,10,33,0,0,0,6,34,0,2,0,0,0,0,0,0,2147483647,2147483647],"sum_hessian":[1.3539139E2,3.4131428E1,1.0125996E2,3.1886482E1,2.2449467E0,7.462988E1,2.6630074E1,3.017815E1,1.7083318E0,1.1355767E0,1.1093699E0,4.272013E1,3.1909752E1,1.0667633E0,2.556331E1,2.7752857E1,2.4252925E0,7.1553564E0,3.5564774E1,2.590905E1,6.000702E0,2.0270414E0,2.3536268E1],"tree_param":{"num_deleted":"2","num_feature":"37","num_nodes":"23","size_leaf_vector":"0"}},{"base_weights":[7.1580037E-3,-8.492493E-1,2.225284E-1,-9.705641E-1,1.20108895E-1,4.035912E-2,9.659088E-1,-3.0916372E-1,5.9370905E-1,-5.994731E-2,6.162957E-1,-3.8075408E-1,1.2973192E-1,7.939514E-1,-3.1555626E-1],"default_left":[true,true,true,false,true,true,false,true,true,true,true,false,false,false,false],"id":40,"leaf_child_counts":[0,0,0,0,0,0,0,0,0,0,0,0,0,0,0],"left_children":[1,3,5,-1,-1,9,-1,-1,-1,11,13,-1,-1,-1,-1],"loss_changes":[2.441171E1,3.2443771E0,1.4279123E1,0E0,9.6592695E-1,5.003083E0,0E0,0E0,0E0,4.559881E0,2.3761106E0,0E0,0E0,0E0,0E0],"parents":[2147483647,0,0,1,1,2,2,4,4,5,5,9,9,10,10],"right_children":[2,4,6,-1,-1,10,-1,-1,-1,12,14,-1,-1,-1,-1],"split_conditions":[2.6699323E-2,2.6574686E-2,7.0529565E-2,-9.705641E-2,1.201089E-2,1.5772156E-2,9.6590884E-2,-3.0916372E-2,5.9370905E-2,1.2541307E-2,4.092239E-2,-3.807541E-2,1.2973192E-2,7.939514E-2,-3.1555627E-2],"split_indices":[7,2,7,0,3,20,0,2147483647,2147483647,2,0,0,0,0,0],"sum_hessian":[1.303278E2,2.559754E1,1.0473027E2,2.2749237E1,2.8483021E0,8.496375E1,1.9766521E1,1.6761973E0,1.172105E0,7.312419E1,1.1839562E1,2.6796162E1,4.6328026E1,1.0068088E1,1.7714746E0],"tree_param":{"num_deleted":"2","num_feature":"37","num_nodes":"15","size_leaf_vector":"0"}},{"base_weights":[6.906828E-3,-9.6638644E-1,1.8153083E-1,-1.38663575E-2,8.8026553E-1,-7.155746E-1,6.211192E-2,2.1544902E-1,9.62367E-1,-8.680322E-1,-1.5051632E-1,-3.1344983E-1,2.1191834E-1,7.1127814E-1,-4.8537105E-1],"default_left":[true,false,true,true,true,true,true,true,false,true,true,false,false,false,false],"id":41,"leaf_child_counts":[0,0,0,0,0,0,0,0,0,0,0,0,0,0,0],"left_children":[1,-1,3,5,7,-1,11,13,-1,-1,-1,-1,-1,-1,-1],"loss_changes":[2.1689587E1,0E0,1.4780615E1,4.6036463E0,1.0837536E0,5.9595776E-1,4.45936E0,1.6964396E0,0E0,0E0,0E0,0E0,0E0,0E0,0E0],"parents":[2147483647,0,0,2,2,3,3,4,4,5,5,6,6,7,7],"right_children":[2,-1,4,6,8,-1,12,14,-1,-1,-1,-1,-1,-1,-1],"split_conditions":[8.3185015E-3,-9.663864E-2,5.0792493E-2,2.4811398E-2,1.5771456E-2,-7.155746E-2,4.7414482E-1,5.0191414E-1,9.62367E-2,-8.680322E-2,-1.5051632E-2,-3.1344984E-2,2.1191834E-2,7.112782E-2,-4.8537105E-2],"split_indices":[10,0,33,36,2,10,8,17,0,2147483647,2147483647,0,0,0,0],"sum_hessian":[1.2558338E2,1.8414314E1,1.0716907E2,8.451507E1,2.2654003E1,7.4345026E0,7.708057E1,2.8885074E0,1.9765495E1,5.4325676E0,2.0019352E0,2.16677E1,5.5412865E1,1.6829208E0,1.2055866E0],"tree_param":{"num_deleted":"2","num_feature":"37","num_nodes":"15","size_leaf_vector":"0"}},{"base_weights":[5.921345E-3,-1.644561E-1,9.2946416E-1,-8.8194287E-1,2.901852E-2,9.795771E-3,9.7935146E-1,-9.6081084E-1,-9.638993E-2,-1.2245996E-1,3.9277127E-1,-5.34513E-1,4.1420147E-1,5.2726574E-2,-7.255086E-1,1.0903245E0,1.4141025E-1],"default_left":[true,true,true,true,true,true,true,false,true,true,true,true,true,false,false,false,false],"id":42,"leaf_child_counts":[0,0,0,0,0,0,0,0,0,0,0,0,0,0,0,0,0],"left_children":[1,3,-1,7,9,-1,-1,-1,-1,13,15,-1,-1,-1,-1,-1,-1],"loss_changes":[1.9453287E1,1.4518516E1,8.7379074E-1,1.283144E0,4.6323943E0,0E0,0E0,0E0,9.232641E-1,6.3242283E0,4.176327E0,0E0,0E0,0E0,0E0,0E0,0E0],"parents":[2147483647,0,0,1,1,2,2,3,3,4,4,8,8,9,9,10,10],"right_children":[2,4,-1,8,10,-1,-1,-1,-1,14,16,-1,-1,-1,-1,-1,-1],"split_conditions":[3.376002E-2,2.6699323E-2,9.294642E-2,2.6574686E-2,8.060293E-3,9.795771E-4,9.793515E-2,-9.6081086E-2,-9.638993E-3,6.3440534E-3,1.4792006E-2,-5.34513E-2,4.1420147E-2,5.2726576E-3,-7.2550856E-2,1.0903245E-1,1.4141025E-2],"split_indices":[2,7,19,2,18,2147483647,2147483647,0,9,12,5,2147483647,2147483647,0,0,0,0],"sum_hessian":[1.2165856E2,1.0340423E2,1.8254337E1,2.1205755E1,8.219847E1,1.0008122E0,1.7253525E1,1.9068241E1,2.137515E0,5.8500362E1,2.369811E1,1.1251806E0,1.0123343E0,4.6038635E1,1.2461727E1,5.3933406E0,1.830477E1],"tree_param":{"num_deleted":"4","num_feature":"37","num_nodes":"17","size_leaf_vector":"0"}},{"base_weights":[5.8580944E-3,-9.549487E-1,1.607861E-1,-1.3336908E-2,8.609064E-1,4.466544E-1,-1.1672326E-1,2.050083E-1,9.5286065E-1,-6.9809055E-1,7.760646E-1,-8.1958115E-1,2.422219E-3,6.948841E-1,-4.713404E-1],"default_left":[true,false,true,true,true,true,true,true,false,false,false,false,false,false,false],"id":43,"leaf_child_counts":[0,0,0,0,0,0,0,0,0,0,0,0,0,0,0],"left_children":[1,-1,3,5,7,9,11,13,-1,-1,-1,-1,-1,-1,-1],"loss_changes":[1.78701E1,0E0,1.2610273E1,4.03495E0,1.0470343E0,6.4153323E0,5.7946544E0,1.5888661E0,0E0,0E0,0E0,0E0,0E0,0E0,0E0],"parents":[2147483647,0,0,2,2,3,3,4,4,5,5,6,6,7,7],"right_children":[2,-1,4,6,8,10,12,14,-1,-1,-1,-1,-1,-1,-1],"split_conditions":[8.3185015E-3,-9.5494874E-2,5.0792493E-2,4.922277E-1,1.5771456E-2,2.7493443E-3,4.95601E-1,5.0191414E-1,9.5286064E-2,-6.980906E-2,7.760646E-2,-8.1958115E-2,2.422219E-4,6.948841E-2,-4.7134038E-2],"split_indices":[10,0,33,28,2,20,32,17,0,0,0,0,0,0,0],"sum_hessian":[1.1801817E2,1.5670659E1,1.0234751E2,8.2748535E1,1.9598976E1,1.45760145E1,6.817252E1,2.8069327E0,1.6792044E1,3.0070152E0,1.1568999E1,9.029175E0,5.914335E1,1.6119794E0,1.1949533E0],"tree_param":{"num_deleted":"0","num_feature":"37","num_nodes":"15","size_leaf_vector":"0"}},{"base_weights":[5.137202E-3,-9.448609E-1,1.4899063E-1,-1.2894757E-2,8.484939E-1,-7.990623E-2,6.282364E-1,1.9442797E-1,9.4682336E-1,-5.471914E-1,2.1824492E-2,1.617655E-1,9.7713226E-1,6.756932E-1,-4.4004035E-1],"default_left":[true,false,true,true,true,true,true,true,false,false,false,false,false,false,false],"id":44,"leaf_child_counts":[0,0,0,0,0,0,0,0,0,0,0,0,0,0,0],"left_children":[1,-1,3,5,7,9,11,13,-1,-1,-1,-1,-1,-1,-1],"loss_changes":[1.5933053E1,0E0,1.1473604E1,3.6241465E0,1.0403681E0,3.6343565E0,1.1414506E0,1.4413348E0,0E0,0E0,0E0,0E0,0E0,0E0,0E0],"parents":[2147483647,0,0,2,2,3,3,4,4,5,5,6,6,7,7],"right_children":[2,-1,4,6,8,10,12,14,-1,-1,-1,-1,-1,-1,-1],"split_conditions":[8.3185015E-3,-9.448609E-2,5.0792493E-2,1.8506065E-2,1.5771456E-2,3.0598603E-2,2.70539E-2,5.0191414E-1,9.4682336E-2,-5.471914E-2,2.1824492E-3,1.617655E-2,9.7713225E-2,6.756932E-2,-4.4004034E-2],"split_indices":[10,0,33,20,2,7,15,17,0,0,0,0,0,0,0],"sum_hessian":[1.14558495E2,1.4333412E1,1.0022508E2,8.218634E1,1.8038742E1,7.5201584E1,6.984755E0,2.746559E0,1.5292184E1,1.266195E1,6.2539635E1,3.6150768E0,3.369678E0,1.5248978E0,1.221661E0],"tree_param":{"num_deleted":"0","num_feature":"37","num_nodes":"15","size_leaf_vector":"0"}},{"base_weights":[5.574819E-3,-1.3793442E-1,9.0468496E-1,-9.139875E-1,1.2536574E-2,1.0194874E-2,9.656701E-1,-9.570384E-1,-2.92806E-1,-8.023498E-1,6.394265E-2,3.0542338E-1,-1.607852E-1],"default_left":[true,true,true,true,true,true,true,true,true,false,true,false,false],"id":45,"leaf_child_counts":[0,0,0,0,0,0,0,0,0,0,0,0,0],"left_children":[1,3,-1,-1,9,-1,-1,-1,-1,-1,11,-1,-1],"loss_changes":[1.4614282E1,1.142094E1,8.4053993E-1,1.444788E-1,3.5208414E0,0E0,0E0,0E0,0E0,0E0,4.32734E0,0E0,0E0],"parents":[2147483647,0,0,1,1,2,2,3,3,4,4,10,10],"right_children":[2,4,-1,-1,10,-1,-1,-1,-1,-1,12,-1,-1],"split_conditions":[3.376002E-2,2.4811398E-2,9.0468496E-2,-9.139875E-2,8.317397E-3,1.0194875E-3,9.656701E-2,-9.570384E-2,-2.9280601E-2,-8.023498E-2,3.3117916E-2,3.0542338E-2,-1.607852E-2],"split_indices":[2,36,19,9,10,2147483647,2147483647,2147483647,2147483647,0,0,0,0],"sum_hessian":[1.1129502E2,9.67061E1,1.4588917E1,1.4881369E1,8.182473E1,1.0056641E0,1.3583253E1,1.3411231E1,1.4701376E0,3.988658E0,7.7836075E1,3.7346455E1,4.048962E1],"tree_param":{"num_deleted":"4","num_feature":"37","num_nodes":"13","size_leaf_vector":"0"}},{"base_weights":[4.442058E-3,-1.5258957E-1,7.5958335E-1,-9.239062E-1,-2.3593558E-2,1.9386901E-1,9.374015E-1,7.265998E-1,-9.926318E-2,6.05547E-1,-8.1339985E-1,-1.8191534E-1,9.7735685E-1,3.529541E-1,-1.9966917E-1,7.8406554E-1,-1.4620645E-2],"default_left":[true,true,true,false,true,true,false,true,true,true,false,false,false,false,false,true,true],"id":46,"leaf_child_counts":[0,0,0,0,0,0,0,0,0,0,0,0,0,0,0,0,0],"left_children":[1,3,5,-1,7,9,-1,11,13,-1,-1,-1,-1,-1,-1,-1,-1],"loss_changes":[1.3098356E1,9.07887E0,1.7310343E0,0E0,4.5787234E0,2.9010234E0,0E0,1.8622942E0,3.3847795E0,5.313957E-1,0E0,0E0,0E0,0E0,0E0,0E0,0E0],"parents":[2147483647,0,0,1,1,2,2,4,4,5,5,7,7,8,8,9,9],"right_children":[2,4,6,-1,8,10,-1,12,14,-1,-1,-1,-1,-1,-1,-1,-1],"split_conditions":[5.223401E-2,8.3185015E-3,2.0881426E-2,-9.239062E-2,9.933041E-3,1.9494131E-2,9.374015E-2,4.7213155E-1,4.922277E-1,6.05547E-2,-8.1339985E-2,-1.8191535E-2,9.773569E-2,3.529541E-2,-1.9966917E-2,7.840656E-2,-1.4620646E-3],"split_indices":[7,10,10,0,5,10,0,8,28,8,0,0,0,0,0,2147483647,2147483647],"sum_hessian":[1.0848164E2,9.046697E1,1.8014675E1,1.20791025E1,7.838787E1,4.8081584E0,1.3206516E1,6.3940997E0,7.199377E1,3.6962838E0,1.1118748E0,1.442463E0,4.951637E0,1.2623532E1,5.9370235E1,2.6648986E0,1.0313851E0],"tree_param":{"num_deleted":"2","num_feature":"37","num_nodes":"17","size_leaf_vector":"0"}},{"base_weights":[4.9571423E-3,-1.2126502E-1,8.8404244E-1,-8.947474E-1,1.2022232E-2,9.557841E-3,9.532758E-1,-9.455175E-1,-2.3399237E-1,-2.8620863E-1,1.4889926E-1,-6.0661954E-1,1.2818402E-1,6.3041925E-1,-6.244843E-2],"default_left":[true,true,true,true,true,true,true,true,true,true,true,false,false,false,false],"id":47,"leaf_child_counts":[0,0,0,0,0,0,0,0,0,0,0,0,0,0,0],"left_children":[1,3,-1,-1,9,-1,-1,-1,-1,11,13,-1,-1,-1,-1],"loss_changes":[1.1975169E1,9.74372E0,8.112354E-1,2.4472904E-1,3.3702214E0,0E0,0E0,0E0,0E0,3.5280745E0,5.7924314E0,0E0,0E0,0E0,0E0],"parents":[2147483647,0,0,1,1,2,2,3,3,4,4,9,9,10,10],"right_children":[2,4,-1,-1,10,-1,-1,-1,-1,12,14,-1,-1,-1,-1],"split_conditions":[3.376002E-2,2.4811398E-2,8.8404246E-2,-8.947474E-2,4.9816397E-1,9.5578417E-4,9.532758E-2,-9.455175E-2,-2.3399238E-2,1.6482722E-2,5.010106E-1,-6.0661953E-2,1.2818403E-2,6.3041925E-2,-6.2448434E-3],"split_indices":[2,36,19,9,29,2147483647,2147483647,2147483647,2147483647,2,29,0,0,0,0],"sum_hessian":[1.05957115E2,9.34074E1,1.2549708E1,1.2890326E1,8.051708E1,1.0041661E0,1.1545543E1,1.1570336E1,1.3199896E0,2.4986002E1,5.553108E1,1.3829259E1,1.1156743E1,1.6333988E1,3.919709E1],"tree_param":{"num_deleted":"4","num_feature":"37","num_nodes":"15","size_leaf_vector":"0"}},{"base_weights":[4.5962646E-3,-1.0712378E-1,9.2309135E-1,-9.0793437E-1,3.6202818E-3,-7.1258456E-2,5.156038E-1,5.9053674E-2,-4.8288733E-1,7.148963E-1,-3.7400156E-1],"default_left":[true,true,false,false,true,true,true,false,false,false,false],"id":48,"leaf_child_counts":[0,0,0,0,0,0,0,0,0,0,0],"left_children":[1,3,-1,-1,5,7,9,-1,-1,-1,-1],"loss_changes":[1.0831287E1,8.35242E0,0E0,0E0,3.2456079E0,3.99259E0,2.1823237E0,0E0,0E0,0E0,0E0],"parents":[2147483647,0,0,1,1,4,4,5,5,6,6],"right_children":[2,4,-1,-1,6,8,10,-1,-1,-1,-1],"split_conditions":[7.0529565E-2,8.3185015E-3,9.230914E-2,-9.079344E-2,1.5772156E-2,9.8118875E-3,4.092239E-2,5.9053674E-3,-4.8288733E-2,7.148963E-2,-3.7400156E-2],"split_indices":[7,10,0,0,20,16,0,0,0,0,0],"sum_hessian":[1.03589714E2,9.314367E1,1.0446048E1,1.0441413E1,8.2702255E1,7.290112E1,9.801134E0,5.60223E1,1.687882E1,8.167754E0,1.6333798E0],"tree_param":{"num_deleted":"0","num_feature":"37","num_nodes":"11","size_leaf_vector":"0"}},{"base_weights":[4.2865095E-3,-1.07666776E-1,8.637153E-1,-8.74273E-1,1.0278452E-2,7.7082235E-3,9.414799E-1,-9.3300295E-1,-1.791612E-1,-4.5515293E-1,9.682173E-2,-8.178051E-1,2.2937919E-1,-4.609402E-2,8.6473477E-1],"default_left":[true,true,true,true,true,true,true,true,true,true,true,false,false,false,false],"id":49,"leaf_child_counts":[0,0,0,0,0,0,0,0,0,0,0,0,0,0,0],"left_children":[1,3,-1,-1,9,-1,-1,-1,-1,11,13,-1,-1,-1,-1],"loss_changes":[9.969558E0,8.301055E0,7.8764725E-1,3.3252525E-1,3.2853434E0,0E0,0E0,0E0,0E0,3.3631566E0,7.5769114E0,0E0,0E0,0E0,0E0],"parents":[2147483647,0,0,1,1,2,2,3,3,4,4,9,9,10,10],"right_children":[2,4,-1,-1,10,-1,-1,-1,-1,12,14,-1,-1,-1,-1],"split_conditions":[3.376002E-2,2.4811398E-2,8.637153E-2,-8.74273E-2,4.9432498E-1,7.7082234E-4,9.4147995E-2,-9.33003E-2,-1.791612E-2,2.2250954E-2,5.0551665E-1,-8.1780516E-2,2.293792E-2,-4.609402E-3,8.647348E-2],"split_indices":[2,36,19,9,35,2147483647,2147483647,2147483647,2147483647,2,6,0,0,0,0],"sum_hessian":[1.0165004E2,9.0708626E1,1.0941415E1,1.123996E1,7.9468666E1,1.0027368E0,9.938678E0,1.004871E1,1.1912493E0,1.1791971E1,6.76767E1,7.581006E0,4.2109656E0,5.7850212E1,9.826487E0],"tree_param":{"num_deleted":"4","num_feature":"37","num_nodes":"15","size_leaf_vector":"0"}},{"base_weights":[4.209592E-3,-9.453219E-2,9.0927094E-1,-8.886103E-1,3.4544729E-3,1.669715E-1,-1.9258086E-1,-2.5187144E-1,4.5972273E-1,-4.469828E-1,2.3385736E-1],"default_left":[true,true,false,false,true,true,true,false,false,false,false],"id":50,"leaf_child_counts":[0,0,0,0,0,0,0,0,0,0,0],"left_children":[1,3,-1,-1,5,7,9,-1,-1,-1,-1],"loss_changes":[9.060668E0,7.118879E0,0E0,0E0,2.6735926E0,5.6903687E0,4.220469E0,0E0,0E0,0E0,0E0],"parents":[2147483647,0,0,1,1,4,4,5,5,6,6],"right_children":[2,4,-1,-1,6,8,10,-1,-1,-1,-1],"split_conditions":[7.0529565E-2,8.3185015E-3,9.0927094E-2,-8.886103E-2,5.0273085E-1,4.9685594E-1,5.097723E-1,-2.5187144E-2,4.5972273E-2,-4.469828E-2,2.3385737E-2],"split_indices":[7,10,0,0,32,35,31,0,0,0,0],"sum_hessian":[9.9424934E1,9.0452194E1,8.972742E0,9.049214E0,8.140298E1,4.4463413E1,3.6939568E1,1.8349783E1,2.6113628E1,2.3106598E1,1.3832971E1],"tree_param":{"num_deleted":"0","num_feature":"37","num_nodes":"11","size_leaf_vector":"0"}},{"base_weights":[3.8841062E-3,-5.7753927E-1,1.4949436E-1,-1.05954945E-1,-8.707526E-1,5.065963E-2,9.0008754E-1,6.831838E-1,-5.240724E-1,-9.7078663E-1,4.7193263E-2,1.8108638E-1,-2.1749449E-1,-5.7915077E-2,1.1331947E0,-7.8901154E-1,4.241661E-1,4.8493866E-2,8.5432506E-1,5.0715003E-2,-8.073211E-1],"default_left":[true,true,true,true,true,true,false,true,true,false,false,true,true,false,false,false,false,false,false,false,false],"id":51,"leaf_child_counts":[0,0,0,0,0,0,0,0,0,0,0,0,0,0,0,0,0,0,0,0,0],"left_children":[1,3,5,7,9,11,-1,13,15,-1,-1,17,19,-1,-1,-1,-1,-1,-1,-1,-1],"loss_changes":[8.43375E0,2.666709E0,5.862844E0,3.257721E0,1.1628399E0,2.5378788E0,0E0,1.2254753E0,1.9200064E0,0E0,0E0,4.2975364E0,3.810892E0,0E0,0E0,0E0,0E0,0E0,0E0,0E0,0E0],"parents":[2147483647,0,0,1,1,2,2,3,3,4,4,5,5,7,7,8,8,11,11,12,12],"right_children":[2,4,6,8,10,12,-1,14,16,-1,-1,18,20,-1,-1,-1,-1,-1,-1,-1,-1],"split_conditions":[1.0618815E-2,1.6754016E-2,7.0529565E-2,4.2244178E-1,7.290263E-2,5.065469E-1,9.000876E-2,4.8032135E-2,5.016829E-1,-9.7078666E-2,4.7193263E-3,5.0711673E-1,5.001303E-1,-5.7915077E-3,1.1331947E-1,-7.890116E-2,4.2416614E-2,4.849387E-3,8.543251E-2,5.0715003E-3,-8.073211E-2],"split_indices":[10,4,7,19,9,32,0,9,8,0,0,31,17,0,0,0,0,0,0,0,0],"sum_hessian":[9.759785E1,1.8952793E1,7.864505E1,7.7881784E0,1.1164616E1,7.043763E1,8.2074175E0,2.4777732E0,5.3104053E0,1.0015593E1,1.1490229E0,4.7606922E1,2.283071E1,1.265308E0,1.212465E0,4.2819433E0,1.028462E0,4.0669254E1,6.937668E0,1.6322474E1,6.5082364E0],"tree_param":{"num_deleted":"0","num_feature":"37","num_nodes":"21","size_leaf_vector":"0"}},{"base_weights":[4.2611877E-3,-1.4509062E-1,5.330246E-1,-9.068225E-1,-2.7733568E-2,2.0343876E-2,7.974943E-1,-6.3004255E-1,6.2400036E-2,-3.5084566E-1,6.1773115E-1,-7.5475305E-2,9.6213025E-1,-8.4700954E-1,4.0836987E-1,7.0297515E-1,-1.00409776E-1,5.3405976E-1,-7.366792E-1,5.527453E-1,-7.0837605E-1],"default_left":[true,true,true,false,true,true,true,true,true,true,false,true,false,false,false,false,false,false,false,false,false],"id":52,"leaf_child_counts":[0,0,0,0,0,0,0,0,0,0,0,0,0,0,0,0,0,0,0,0,0],"left_children":[1,3,5,-1,7,9,11,13,15,17,-1,19,-1,-1,-1,-1,-1,-1,-1,-1,-1],"loss_changes":[7.7000647E0,6.7734566E0,2.8952818E0,0E0,3.6728508E0,2.0646582E0,2.1047735E0,2.329059E0,6.2371693E0,2.3660831E0,0E0,1.6522491E0,0E0,0E0,0E0,0E0,0E0,0E0,0E0,0E0,0E0],"parents":[2147483647,0,0,1,1,2,2,4,4,5,5,6,6,7,7,8,8,9,9,11,11],"right_children":[2,4,6,-1,8,10,12,14,16,18,-1,20,-1,-1,-1,-1,-1,-1,-1,-1,-1],"split_conditions":[2.3545504E-2,2.6699323E-2,3.81833E-2,-9.068225E-2,4.9464676E-1,2.9814165E-2,4.9101797E-1,4.698564E-2,4.9657595E-1,4.8987472E-1,6.1773118E-2,4.8562926E-1,9.621303E-2,-8.470096E-2,4.0836986E-2,7.029752E-2,-1.0040978E-2,5.3405978E-2,-7.366792E-2,5.5274528E-2,-7.083761E-2],"split_indices":[2,7,7,0,35,10,17,7,34,28,0,6,0,0,0,0,0,0,0,0,0],"sum_hessian":[9.552472E1,7.505163E1,2.0473095E1,9.12123E0,6.59304E1,7.333621E0,1.3139474E1,7.8022866E0,5.812811E1,4.7776837E0,2.5559378E0,2.1707585E0,1.0968716E1,6.606285E0,1.1960014E0,1.1107578E1,4.702053E1,1.3339987E0,3.4436848E0,1.152966E0,1.0177925E0],"tree_param":{"num_deleted":"0","num_feature":"37","num_nodes":"21","size_leaf_vector":"0"}},{"base_weights":[4.5741918E-3,-2.3262437E-1,3.1402484E-1,-7.216384E-1,-5.6652065E-2,7.7639885E-2,7.297936E-1,3.1294233E-1,-8.2399905E-1,9.560822E-1,-1.3734E-1,5.8278245E-1,-2.9975158E-1,8.749368E-2,8.866549E-1,-9.053667E-1,8.206703E-2,2.4402297E-1,1.2268136E0,-2.2213954E-1,6.539964E-1,8.330069E-1,-4.92032E-1,-5.337332E-1,3.9713448E-1,-5.7145214E-1,6.506477E-1,1.5144466E-1,9.6215737E-1],"default_left":[true,true,true,true,true,true,true,false,true,true,true,true,true,true,true,false,false,true,true,false,false,false,false,false,false,false,false,true,true],"id":53,"leaf_child_counts":[0,0,0,0,0,0,0,0,0,0,0,0,0,0,0,0,0,0,0,0,0,0,0,0,0,0,0,0,0],"left_children":[1,3,5,7,9,11,13,-1,15,-1,19,21,23,25,-1,-1,-1,-1,-1,-1,-1,-1,-1,-1,-1,-1,-1,-1,-1],"loss_changes":[6.990274E0,4.599228E0,4.004028E0,1.7599378E0,3.460212E0,5.40955E0,1.4192972E0,0E0,1.0461426E0,3.0436873E-1,2.7359295E0,3.6592922E0,2.882501E0,1.8656856E0,5.110483E-1,0E0,0E0,0E0,0E0,0E0,0E0,0E0,0E0,0E0,0E0,0E0,0E0,0E0,0E0],"parents":[2147483647,0,0,1,1,2,2,3,3,4,4,5,5,6,6,8,8,9,9,10,10,11,11,12,12,13,13,14,14],"right_children":[2,4,6,8,10,12,14,-1,16,-1,20,22,24,26,-1,-1,-1,-1,-1,-1,-1,-1,-1,-1,-1,-1,-1,-1,-1],"split_conditions":[4.2751584E-2,9.77279E-3,7.998998E-3,4.9341398E-1,9.686843E-3,5.5416394E-3,4.1743603E-1,3.1294234E-2,1.5937973E-2,9.560823E-2,2.9814165E-2,2.5311333E-6,2.1827143E-2,5.955276E-2,8.866549E-2,-9.053668E-2,8.206703E-3,2.4402296E-2,1.2268136E-1,-2.2213954E-2,6.539964E-2,8.3300695E-2,-4.92032E-2,-5.337332E-2,3.971345E-2,-5.7145216E-2,6.506477E-2,1.5144466E-2,9.621574E-2],"split_indices":[36,2,18,31,5,13,19,0,20,7,10,27,2,9,2,0,0,2147483647,2147483647,0,0,0,0,0,0,0,0,2147483647,2147483647],"sum_hessian":[9.323852E1,5.2921593E1,4.0316925E1,1.3183832E1,3.973776E1,2.6459908E1,1.3857018E1,1.0017444E0,1.2182088E1,2.1318054E0,3.7605953E1,1.1082125E1,1.5377782E1,3.0256534E0,1.0831365E1,1.1178953E1,1.0031343E0,1.111021E0,1.0207844E0,3.461581E1,2.9901414E0,9.171833E0,1.9102921E0,1.1687714E1,3.6900685E0,1.3874568E0,1.6381966E0,1.288671E0,9.542694E0],"tree_param":{"num_deleted":"4","num_feature":"37","num_nodes":"29","size_leaf_vector":"0"}},{"base_weights":[6.558223E-3,-3.3477923E-1,2.0319976E-1,1.16323166E-1,-6.1559093E-1,7.582854E-2,7.734642E-1,8.0009586E-1,-2.8082904E-1,-8.4066033E-1,-1.8581766E-1,1.5430535E-1,-6.789604E-1,8.5134536E-2,8.954116E-1,-1.88303E-2,1.0847114E0,-5.8579147E-1,5.7520735E-1,4.6654426E-2,-9.69938E-1,-5.821769E-1,5.8292073E-1,-2.2953365E-2,5.457985E-1,6.912774E-1,-1.3089567E0],"default_left":[true,true,true,true,true,true,true,true,true,true,true,true,true,true,true,false,false,false,false,false,false,false,false,false,false,false,false],"id":54,"leaf_child_counts":[0,0,0,0,0,0,0,0,0,0,0,0,0,0,0,0,0,0,0,0,0,0,0,0,0,0,0],"left_children":[1,3,5,7,9,11,-1,15,17,19,21,23,25,-1,-1,-1,-1,-1,-1,-1,-1,-1,-1,-1,-1,-1,-1],"loss_changes":[6.242006E0,4.378441E0,4.225635E0,3.9954429E0,1.8860922E0,